{"learner":{"attributes":{"best_iteration":"99","best_ntree_limit":"100","scikit_learn":"{\"n_estimators\": 100, \"objective\": \"reg:squarederror\", \"max_depth\": null, \"learning_rate\": null, \"verbosity\": null, \"booster\": null, \"tree_method\": null, \"gamma\": null, \"min_child_weight\": null, \"max_delta_step\": null, \"subsample\": null, \"colsample_bytree\": null, \"colsample_bylevel\": null, \"colsample_bynode\": null, \"reg_alpha\": null, \"reg_lambda\": null, \"scale_pos_weight\": null, \"base_score\": null, \"missing\": NaN, \"num_parallel_tree\": null, \"random_state\": null, \"n_jobs\": null, \"monotone_constraints\": null, \"interaction_constraints\": null, \"importance_type\": null, \"gpu_id\": null, \"validate_parameters\": null, \"predictor\": null, \"enable_categorical\": false, \"_estimator_type\": \"regressor\"}"},"feature_names":[],"feature_types":[],"gradient_booster":{"model":{"gbtree_model_param":{"num_trees":"100","size_leaf_vector":"0"},"tree_info":[0,0,0,0,0,0,0,0,0,0,0,0,0,0,0,0,0,0,0,0,0,0,0,0,0,0,0,0,0,0,0,0,0,0,0,0,0,0,0,0,0,0,0,0,0,0,0,0,0,0,0,0,0,0,0,0,0,0,0,0,0,0,0,0,0,0,0,0,0,0,0,0,0,0,0,0,0,0,0,0,0,0,0,0,0,0,0,0,0,0,0,0,0,0,0,0,0,0,0,0],"trees":[{"base_weights":[7.9207975E6,6.5594775E6,1.3029423E7,6.1206275E6,8.47643E6,1.1540471E7,1.574643E7,5.3079935E6,6.861622E6,7.8157595E6,9.047975E6,1.0624208E7,1.2640481E7,1.5892944E7,6.603283E6,4.3374495E6,6.3008495E6,5.225774E6,9.460384E6,7.820562E6,1.8954998E6,8.97284E6,1.211192E7,1.0233019E7,1.120752E7,1.265402E7,1.2499998E6,1.4833385E7,1.7574488E7,7.5424485E6,1.9001746E6,7.517346E6,4.077983E6,5.7528325E6,6.7867595E6,4.507292E6,6.2515905E6,1.0601096E7,8.3751785E6,7.769321E6,9.838191E6,1.0142979E7,1.322755E7,1.2171793E7,1.3168983E7,1.6999996E6,8.450167E6,9.356075E6,5.7974485E6,3.0583178E6,4.6438615E6,5.538329E6,5.9931095E6,6.474732E6,6.9952775E6,4.092866E6,4.9958645E6,5.694102E6,6.788559E6,8.9071E6,1.1765689E7,8.256435E6,1.3796312E7,5.7659765E6,1.0518E7],"categories":[],"categories_nodes":[],"categories_segments":[],"categories_sizes":[],"default_left":[true,true,true,true,true,true,true,true,true,true,true,true,true,true,true,true,true,true,true,true,false,false,false,true,false,true,false,false,false,true,false,true,true,true,true,true,true,true,true,false,false,false,false,false,false,false,true,false,false,false,false,false,false,false,false,false,false,false,false,false,false,false,false,false,false],"id":0,"left_children":[1,3,5,7,9,11,13,15,17,19,21,23,25,27,29,31,33,35,37,39,-1,-1,-1,41,-1,43,-1,-1,-1,45,-1,47,49,51,53,55,57,59,61,-1,-1,-1,-1,-1,-1,-1,63,-1,-1,-1,-1,-1,-1,-1,-1,-1,-1,-1,-1,-1,-1,-1,-1,-1,-1],"loss_changes":[8.4793924E16,8.0569807E15,1.0203056E16,4.68873E15,6.063205E14,1.5408453E15,1.10872004E15,3.583317E15,1.7384636E16,9.032316E12,1.1117093E14,9.364747E13,9.984081E13,1.3268185E15,5.6339905E13,1.5353413E15,4.535829E14,1.828402E15,1.870819E15,1.0200547E13,0E0,0E0,0E0,1.6282221E13,0E0,2.5701084E13,0E0,0E0,0E0,5.4577626E13,0E0,3.9482292E14,9.995978E14,1.1957189E13,1.8141942E13,2.8022944E14,2.7117565E14,1.4103212E15,4.1136767E14,0E0,0E0,0E0,0E0,0E0,0E0,0E0,4.0849166E11,0E0,0E0,0E0,0E0,0E0,0E0,0E0,0E0,0E0,0E0,0E0,0E0,0E0,0E0,0E0,0E0,0E0,0E0],"parents":[2147483647,0,0,1,1,2,2,3,3,4,4,5,5,6,6,7,7,8,8,9,9,10,10,11,11,12,12,13,13,14,14,15,15,16,16,17,17,18,18,19,19,23,23,25,25,29,29,31,31,32,32,33,33,34,34,35,35,36,36,37,37,38,38,46,46],"right_children":[2,4,6,8,10,12,14,16,18,20,22,24,26,28,30,32,34,36,38,40,-1,-1,-1,42,-1,44,-1,-1,-1,46,-1,48,50,52,54,56,58,60,62,-1,-1,-1,-1,-1,-1,-1,64,-1,-1,-1,-1,-1,-1,-1,-1,-1,-1,-1,-1,-1,-1,-1,-1,-1,-1],"split_conditions":[1.7502332E-1,5.65503E-2,3.9054066E-1,3.334059E-1,1.1457847E-1,2.8080416E-1,7.6383865E-1,-4.7881447E-2,-2.8414634E-1,1.0594836E1,3.334059E-1,2.3794693E-1,6.850051E0,5.267617E-1,3.523885E1,-2.2516394E-1,4.110448E-3,-2.9713973E-1,-3.3767283E-1,3.334059E-1,5.6864994E5,2.691852E6,3.6335762E6,3.334059E-1,3.3622562E6,3.3840993E-1,3.7499994E5,4.4500155E6,5.2723465E6,1.4399451E0,5.7005244E5,-3.3767283E-1,-1.2474154E-1,-2.1265958E-2,2.4315692E-2,-1.2792155E-2,-2.9187688E-1,-2.6908344E-1,8.582859E0,2.3307965E6,2.9514575E6,3.0428938E6,3.9682652E6,3.651538E6,3.950695E6,5.099999E5,5.0993347E0,2.8068225E6,1.7392346E6,9.174954E5,1.3931585E6,1.6614988E6,1.7979329E6,1.9424196E6,2.0985832E6,1.2278599E6,1.4987594E6,1.7082306E6,2.0365678E6,2.67213E6,3.5297068E6,2.4769305E6,4.1388938E6,1.729793E6,3.1554002E6],"split_indices":[8,8,8,11,8,8,8,8,8,197,11,8,377,8,8,8,8,8,4,11,0,0,0,11,0,8,0,0,0,8,0,4,8,8,8,7,8,8,385,0,0,0,0,0,0,0,8,0,0,0,0,0,0,0,0,0,0,0,0,0,0,0,0,0,0],"split_type":[0,0,0,0,0,0,0,0,0,0,0,0,0,0,0,0,0,0,0,0,0,0,0,0,0,0,0,0,0,0,0,0,0,0,0,0,0,0,0,0,0,0,0,0,0,0,0,0,0,0,0,0,0,0,0,0,0,0,0,0,0,0,0,0,0],"sum_hessian":[1.2204E4,9.638E3,2.566E3,7.846E3,1.792E3,1.661E3,9.05E2,3.746E3,4.1E3,8.38E2,9.54E2,9.12E2,7.49E2,8.9E2,1.5E1,1.897E3,1.849E3,2.518E3,1.582E3,8.37E2,1E0,9.35E2,1.9E1,5.57E2,3.55E2,7.48E2,1E0,5.52E2,3.38E2,1.2E1,3E0,1.41E2,1.756E3,8.75E2,9.74E2,1.484E3,1.034E3,7.67E2,8.15E2,8.21E2,1.6E1,5.45E2,1.2E1,3.99E2,3.49E2,2E0,1E1,6.6E1,7.5E1,6.29E2,1.127E3,4.75E2,4E2,4.03E2,5.71E2,8.08E2,6.76E2,5.13E2,5.21E2,3.16E2,4.51E2,8E2,1.5E1,6E0,4E0],"tree_param":{"num_deleted":"0","num_feature":"446","num_nodes":"65","size_leaf_vector":"0"}},{"base_weights":[5.551101E6,4.6136685E6,9.203056E6,4.322756E6,6.1419705E6,8.2589025E6,1.1311729E7,3.3639165E6,4.6006165E6,5.8115425E6,6.6119885E6,7.520649E6,8.984194E6,1.1430924E7,4.995126E6,5.679272E6,3.2003292E6,3.7931295E6,5.943583E6,5.7672325E6,7.7091075E6,6.538666E6,8.637323E6,7.464856E6,1.0845939E7,8.581027E6,9.363001E6,1.0874255E7,1.2915742E7,5.6947285E6,1.4726352E6,7.2566735E6,4.1856608E6,2.6886818E6,3.6942248E6,2.7207415E6,4.4016225E6,4.8654505E6,7.192063E6,7.9730345E6,1.6111748E6,6.981519E6,7.7091855E6,8.596041E6,1.0624998E6,1.0324324E7,1.1360724E7,1.3599998E6,6.3592245E6,6.022952E6,8.945641E6,3.0987922E6,4.644392E6,2.576266E6,4.784651E6,3.6386E6,7.377445E6,5.6577025E6,2.6367428E6,3.9044245E6,4.8265885E6,4.323808E6,5.2306075E6,7.976925E6,5.3007545E6,1.13784E7,3.1793265E6,4.2832965E6,7.993679E6],"categories":[],"categories_nodes":[],"categories_segments":[],"categories_sizes":[],"default_left":[true,true,true,true,true,true,true,true,true,true,true,true,true,true,true,true,true,true,true,false,true,false,false,true,false,true,false,true,false,true,false,true,true,true,true,true,true,true,true,false,false,false,false,false,false,false,true,false,true,false,false,false,false,false,false,false,false,false,false,false,false,false,false,false,false,false,false,false,false],"id":1,"left_children":[1,3,5,7,9,11,13,15,17,19,21,23,25,27,29,31,33,35,37,-1,39,-1,-1,41,-1,43,-1,45,-1,47,-1,49,51,53,55,57,59,61,63,-1,-1,-1,-1,-1,-1,-1,65,-1,67,-1,-1,-1,-1,-1,-1,-1,-1,-1,-1,-1,-1,-1,-1,-1,-1,-1,-1,-1,-1],"loss_changes":[4.174093E16,4.2923216E15,4.867933E15,2.1596126E15,2.0245617E14,8.560815E14,5.2112556E14,6.7799065E14,6.8386273E15,3.2809255E13,3.752513E13,7.877829E13,5.175865E13,4.8194687E14,3.1043252E13,2.5234892E14,4.2445873E14,2.5681714E15,3.1604689E15,0E0,1.6123374E13,0E0,0E0,4.6557445E13,0E0,3.9517994E13,0E0,3.091947E13,0E0,2.8796816E13,0E0,6.4892392E13,1.7517158E13,1.8747854E14,1.5180991E14,3.3885144E14,5.1382412E14,2.299547E14,1.5876046E15,0E0,0E0,0E0,0E0,0E0,0E0,0E0,4.891968E12,0E0,3.0837865E12,0E0,0E0,0E0,0E0,0E0,0E0,0E0,0E0,0E0,0E0,0E0,0E0,0E0,0E0,0E0,0E0,0E0,0E0,0E0,0E0],"parents":[2147483647,0,0,1,1,2,2,3,3,4,4,5,5,6,6,7,7,8,8,9,9,10,10,11,11,12,12,13,13,14,14,15,15,16,16,17,17,18,18,20,20,23,23,25,25,27,27,29,29,31,31,32,32,33,33,34,34,35,35,36,36,37,37,38,38,46,46,48,48],"right_children":[2,4,6,8,10,12,14,16,18,20,22,24,26,28,30,32,34,36,38,-1,40,-1,-1,42,-1,44,-1,46,-1,48,-1,50,52,54,56,58,60,62,64,-1,-1,-1,-1,-1,-1,-1,66,-1,68,-1,-1,-1,-1,-1,-1,-1,-1,-1,-1,-1,-1,-1,-1,-1,-1,-1,-1,-1,-1],"split_conditions":[1.9354412E-1,7.382679E-2,4.219763E-1,-2.947637E-1,1.3931766E-1,2.8994673E-1,7.6383865E-1,-3.233087E-1,3.334059E-1,3.334059E-1,3.334059E-1,3.334059E-1,3.5483503E-1,5.9225255E-1,3.523885E1,-3.3767283E-1,-3.0250996E-1,-6.33111E-2,-2.7628744E-1,1.7301699E6,1.3272548E0,1.9615999E6,2.591197E6,2.1685886E-1,3.2537818E6,6.850051E0,2.8089005E6,4.7842944E-1,3.8747228E6,1.4399451E0,4.417906E5,7.760254E-1,-7.4725574E-1,5.269367E0,7.2010164E0,-2.2516394E-1,-4.5002922E-3,-2.887831E-1,-2.1877334E-1,2.3919105E6,4.8335244E5,2.0944558E6,2.3127558E6,2.5788125E6,3.1874994E5,3.0972972E6,4.16014E0,4.0799994E5,5.0993347E0,1.8068856E6,2.6836925E6,9.296377E5,1.3933176E6,7.728798E5,1.4353954E6,1.09158E6,2.2132335E6,1.6973109E6,7.910229E5,1.1713274E6,1.4479766E6,1.2971425E6,1.5691822E6,2.3930775E6,1.5902264E6,3.4135202E6,9.53798E5,1.284989E6,2.3981038E6],"split_indices":[8,8,8,8,8,8,8,8,11,11,11,11,8,8,8,4,8,8,8,0,7,0,0,8,0,377,0,8,0,8,0,20,3,405,327,8,8,8,8,0,0,0,0,0,0,0,338,0,8,0,0,0,0,0,0,0,0,0,0,0,0,0,0,0,0,0,0,0,0],"split_type":[0,0,0,0,0,0,0,0,0,0,0,0,0,0,0,0,0,0,0,0,0,0,0,0,0,0,0,0,0,0,0,0,0,0,0,0,0,0,0,0,0,0,0,0,0,0,0,0,0,0,0,0,0,0,0,0,0,0,0,0,0,0,0,0,0,0,0,0,0],"sum_hessian":[1.2204E4,9.713E3,2.491E3,8.163E3,1.55E3,1.724E3,7.67E2,1.837E3,6.326E3,9.18E2,6.32E2,8.6E2,8.64E2,7.52E2,1.5E1,1.19E2,1.718E3,3.953E3,2.373E3,9.01E2,1.7E1,6.14E2,1.8E1,8.49E2,1.1E1,4.3E2,4.34E2,5.53E2,1.99E2,1.2E1,3E0,5.6E1,6.3E1,8.47E2,8.71E2,1.433E3,2.52E3,1.276E3,1.097E3,1.6E1,1E0,2.95E2,5.54E2,4.29E2,1E0,2.7E2,2.83E2,2E0,1E1,3.5E1,2.1E1,2.1E1,4.2E1,8.06E2,4.1E1,8.6E2,1.1E1,3.8E1,1.395E3,1.166E3,1.354E3,5.19E2,7.57E2,7.73E2,3.24E2,2.82E2,1E0,6E0,4E0],"tree_param":{"num_deleted":"0","num_feature":"446","num_nodes":"69","size_leaf_vector":"0"}},{"base_weights":[3.8909065E6,3.1850095E6,6.291895E6,2.6668695E6,3.5869198E6,5.4807135E6,7.612951E6,2.5425915E6,3.6097548E6,3.265262E6,4.1568612E6,5.0556465E6,6.0255865E6,7.033446E6,8.381558E6,1.928884E6,2.6646985E6,3.1512828E6,3.8641485E6,2.5587538E6,3.9240712E6,2.941334E6,5.582001E6,5.007284E6,7.343342E6,6.0312275E6,9.031248E5,6.7537925E6,7.4462015E6,8.532588E6,3.7798932E6,1.7366438E6,2.794787E6,3.0814602E6,2.2204182E6,3.6506468E6,4.1469098E6,4.657625E6,2.4567945E6,3.581133E6,4.2210485E6,2.2548412E6,3.4769115E6,4.929497E6,6.7696965E6,4.83149E6,5.2110895E6,7.5964485E6,1.5202685E6,5.7955E6,6.271837E6,8.0773245E6,9.173817E6,4.3010095E6,1.1412924E6,2.8454102E6,1.6018971E6,1.9732059E6,3.189583E6,2.721261E6,4.1680408E6,1.5169152E6,2.5667125E6,3.840957E6,6.2330045E6,1.5235746E6,2.8342362E6,3.565392E6,5.90883E6,3.9366362E6,4.2973975E6,4.6224925E6,2.0285416E6,3.924691E6,3.0617762E6,5.0277145E6,-1.7622718E6,5.0763005E6,7.862231E6,3.831509E6,8.129542E6,2.6064905E6,5.8435335E6],"categories":[],"categories_nodes":[],"categories_segments":[],"categories_sizes":[],"default_left":[true,true,true,true,true,true,true,true,true,true,true,true,true,true,true,true,true,false,true,true,true,true,true,true,true,true,false,false,false,true,true,true,true,true,true,false,false,true,true,true,true,true,true,true,true,false,false,true,false,false,false,false,false,true,false,false,false,false,false,false,false,false,false,false,false,false,false,false,false,false,false,false,false,false,false,false,false,false,false,false,false,false,false],"id":2,"left_children":[1,3,5,7,9,11,13,15,17,19,21,23,25,27,29,31,33,-1,35,37,39,41,43,45,47,49,-1,-1,-1,51,53,55,57,59,61,-1,-1,63,65,67,69,71,73,75,77,-1,-1,79,-1,-1,-1,-1,-1,81,-1,-1,-1,-1,-1,-1,-1,-1,-1,-1,-1,-1,-1,-1,-1,-1,-1,-1,-1,-1,-1,-1,-1,-1,-1,-1,-1,-1,-1],"loss_changes":[2.0665613E16,1.9550262E15,2.9287983E15,4.74188E14,9.5988654E14,3.6813024E14,4.0961962E14,2.682336E14,4.3573517E13,1.5720353E15,3.2957324E15,7.0879845E13,1.6196322E13,1.9660213E13,2.7840837E14,9.652134E13,5.560415E14,0E0,3.1530429E12,3.401582E14,1.6382509E14,3.7233125E14,6.4783354E14,9.075266E12,1.4980779E13,6.0773787E12,0E0,0E0,0E0,5.2012054E13,1.7091571E13,7.0292777E13,2.9061225E13,6.0156815E14,3.5544505E14,0E0,0E0,7.255139E13,5.4834062E14,9.05057E12,3.4080565E12,2.3494733E14,9.561295E13,3.841494E14,5.3176742E14,0E0,0E0,2.9717147E12,0E0,0E0,0E0,0E0,0E0,1.8748774E13,0E0,0E0,0E0,0E0,0E0,0E0,0E0,0E0,0E0,0E0,0E0,0E0,0E0,0E0,0E0,0E0,0E0,0E0,0E0,0E0,0E0,0E0,0E0,0E0,0E0,0E0,0E0,0E0,0E0],"parents":[2147483647,0,0,1,1,2,2,3,3,4,4,5,5,6,6,7,7,8,8,9,9,10,10,11,11,12,12,13,13,14,14,15,15,16,16,18,18,19,19,20,20,21,21,22,22,23,23,24,24,25,25,29,29,30,30,31,31,32,32,33,33,34,34,37,37,38,38,39,39,40,40,41,41,42,42,43,43,44,44,47,47,53,53],"right_children":[2,4,6,8,10,12,14,16,18,20,22,24,26,28,30,32,34,-1,36,38,40,42,44,46,48,50,-1,-1,-1,52,54,56,58,60,62,-1,-1,64,66,68,70,72,74,76,78,-1,-1,80,-1,-1,-1,-1,-1,82,-1,-1,-1,-1,-1,-1,-1,-1,-1,-1,-1,-1,-1,-1,-1,-1,-1,-1,-1,-1,-1,-1,-1,-1,-1,-1,-1,-1,-1],"split_conditions":[1.6373268E-1,-6.07491E-1,3.7482285E-1,1.2634426E-2,3.334059E-1,2.647982E-1,4.9137044E-1,-3.0250996E-1,4.2950623E-2,2.3529802E-2,-2.8014806E-1,3.334059E-1,6.850051E0,4.392659E-1,7.6383865E-1,3.337325E0,-2.212096E-1,9.453849E5,9.452191E-2,-2.5297266E-1,9.3867004E-2,-2.9865283E-1,1.8965381E-1,2.085025E-1,1.128697E0,3.198105E-1,2.7093747E5,2.0261379E6,2.2338605E6,6.04041E-1,3.523885E1,-3.1761217E-1,5.843016E-1,-2.8189346E-1,-1.0542056E-1,1.0951941E6,1.244073E6,1.3461088E0,-9.393463E-2,2.8416922E0,1.0567108E-1,-3.1668222E-1,-3.3767283E-1,4.1473594E0,-2.5834292E-1,1.449447E6,1.5633269E6,-3.6212635E-1,4.5608056E5,1.7386501E6,1.8815511E6,2.4231975E6,2.7521452E6,3.4489646E0,3.4238772E5,8.536231E5,4.8056916E5,5.919618E5,9.5687494E5,8.163783E5,1.2504122E6,4.550746E5,7.7001375E5,1.1522871E6,1.8699014E6,4.570724E5,8.5027094E5,1.0696176E6,1.7726491E6,1.1809909E6,1.2892192E6,1.3867478E6,6.085625E5,1.1774074E6,9.1853294E5,1.5083144E6,-5.2868156E5,1.5228902E6,2.3586695E6,1.1494528E6,2.4388628E6,7.819472E5,1.7530601E6],"split_indices":[8,3,8,8,11,8,8,8,8,8,8,11,377,8,8,7,8,0,8,8,8,8,104,8,3,8,0,0,0,8,8,8,9,8,8,0,0,3,8,407,8,8,4,50,8,0,0,3,0,0,0,0,0,8,0,0,0,0,0,0,0,0,0,0,0,0,0,0,0,0,0,0,0,0,0,0,0,0,0,0,0,0,0],"split_type":[0,0,0,0,0,0,0,0,0,0,0,0,0,0,0,0,0,0,0,0,0,0,0,0,0,0,0,0,0,0,0,0,0,0,0,0,0,0,0,0,0,0,0,0,0,0,0,0,0,0,0,0,0,0,0,0,0,0,0,0,0,0,0,0,0,0,0,0,0,0,0,0,0,0,0,0,0,0,0,0,0,0,0],"sum_hessian":[1.2204E4,9.433E3,2.771E3,4.124E3,5.309E3,1.72E3,1.051E3,3.647E3,4.77E2,3.398E3,1.911E3,9.72E2,7.48E2,6.05E2,4.46E2,6.08E2,3.039E3,1.75E2,3.02E2,1.642E3,1.756E3,1.033E3,8.78E2,9.55E2,1.7E1,7.47E2,1E0,3.71E2,2.34E2,4.31E2,1.5E1,5E2,1.08E2,1.565E3,1.474E3,1.8E2,1.22E2,7.4E1,1.568E3,8.21E2,9.35E2,4.55E2,5.78E2,5.7E2,3.08E2,5.26E2,4.29E2,1.6E1,1E0,3.9E2,3.57E2,2.6E2,1.71E2,1.2E1,3E0,5.2E1,4.48E2,3.7E1,7.1E1,1.178E3,3.87E2,4.88E2,9.86E2,5.1E1,2.3E1,4.53E2,1.115E3,8.18E2,3E0,2.09E2,7.26E2,3.8E1,4.17E2,2.74E2,3.04E2,5.62E2,8E0,1.23E2,1.85E2,3E0,1.3E1,7E0,5E0],"tree_param":{"num_deleted":"0","num_feature":"446","num_nodes":"83","size_leaf_vector":"0"}},{"base_weights":[2.727839E6,2.2324805E6,4.412718E6,1.8693338E6,2.51453E6,3.8419118E6,5.339476E6,1.7628602E6,2.4566155E6,2.568133E6,6.7971594E5,3.5424585E6,4.2186725E6,4.8908285E6,5.8400855E6,1.7357418E6,3.7601932E6,2.209641E6,2.7133505E6,2.3267492E6,2.9978715E6,3.549325E5,1.3159551E6,3.5045822E6,5.446235E6,4.2222265E6,7.6765606E5,4.736662E6,5.186689E6,5.9287655E6,2.8257625E6,1.6982032E6,3.0035335E6,2.7479855E6,5.4863335E6,2.582874E6,2.9665072E6,1.8813548E6,2.7902502E6,2.2882582E6,4.185807E6,7.8013305E4,7.822069E5,1.3440992E6,-4.5626E4,3.389228E6,3.6534842E6,5.961055E6,2.2828075E6,4.1961605E6,5.603781E6,5.7223365E6,6.7785945E6,1.6777694E6,3.7640345E6,1.2966645E6,1.8060355E6,2.3029858E6,4.1460605E6,3.0909478E6,6.29415E6,2.9818362E6,7.47462E5,3.3006332E6,1.814279E6,2.6048888E6,3.0072025E6,1.799964E6,2.7709425E6,4.679002E6,2.780778E6,-1.8393594E5,4.578617E5,1.0316113E6,3.840944E5,9.654482E5,1.4645345E6,4.0250938E6,4.3660315E6,2.1255585E6,5.8664344E5,2.0683936E6,4.942577E6],"categories":[],"categories_nodes":[],"categories_segments":[],"categories_sizes":[],"default_left":[true,true,true,true,true,true,true,true,true,true,true,true,true,true,true,true,true,false,true,true,true,true,true,true,true,true,false,false,false,true,true,true,true,false,true,false,true,true,true,true,true,true,true,true,false,false,false,false,false,true,false,false,false,true,true,false,false,false,false,false,false,false,false,false,false,false,false,false,false,false,false,false,false,false,false,false,false,false,false,false,false,false,false],"id":3,"left_children":[1,3,5,7,9,11,13,15,17,19,21,23,25,27,29,31,33,-1,35,37,39,41,43,45,47,49,-1,-1,-1,51,53,55,57,-1,59,-1,61,63,65,67,69,71,73,75,-1,-1,-1,-1,-1,77,-1,-1,-1,79,81,-1,-1,-1,-1,-1,-1,-1,-1,-1,-1,-1,-1,-1,-1,-1,-1,-1,-1,-1,-1,-1,-1,-1,-1,-1,-1,-1,-1],"loss_changes":[1.0176676E16,9.6157875E14,1.4458707E15,2.5379284E14,5.202086E14,1.7899706E14,2.0816203E14,1.8294091E14,3.4014262E13,5.278665E14,3.0942203E13,5.0425064E13,6.031208E12,1.0672994E12,1.15031035E14,1.5923162E14,6.529545E13,0E0,2.4122952E12,6.772444E14,1.5507688E15,1.2007665E13,2.015665E12,3.900904E12,1.4078198E13,3.6743445E12,0E0,0E0,0E0,4.506602E13,1.0918897E13,1.4296872E14,6.8890336E13,0E0,1.1505647E13,0E0,1.0707219E12,1.5480297E14,5.723366E13,2.6865074E14,4.6581927E14,6.3527793E12,3.575405E12,8.6621605E11,0E0,0E0,0E0,0E0,0E0,4.075924E12,0E0,0E0,0E0,3.1504046E12,5.7638797E12,0E0,0E0,0E0,0E0,0E0,0E0,0E0,0E0,0E0,0E0,0E0,0E0,0E0,0E0,0E0,0E0,0E0,0E0,0E0,0E0,0E0,0E0,0E0,0E0,0E0,0E0,0E0,0E0],"parents":[2147483647,0,0,1,1,2,2,3,3,4,4,5,5,6,6,7,7,8,8,9,9,10,10,11,11,12,12,13,13,14,14,15,15,16,16,18,18,19,19,20,20,21,21,22,22,23,23,24,24,25,25,29,29,30,30,31,31,32,32,34,34,36,36,37,37,38,38,39,39,40,40,41,41,42,42,43,43,49,49,53,53,54,54],"right_children":[2,4,6,8,10,12,14,16,18,20,22,24,26,28,30,32,34,-1,36,38,40,42,44,46,48,50,-1,-1,-1,52,54,56,58,-1,60,-1,62,64,66,68,70,72,74,76,-1,-1,-1,-1,-1,78,-1,-1,-1,80,82,-1,-1,-1,-1,-1,-1,-1,-1,-1,-1,-1,-1,-1,-1,-1,-1,-1,-1,-1,-1,-1,-1,-1,-1,-1,-1,-1,-1],"split_conditions":[1.6373268E-1,-6.0127926E-1,3.7115538E-1,-1.7860431E-2,4.1473594E0,2.604234E-1,4.8615736E-1,6.2766476E0,4.1640807E-2,3.334059E-1,-1.6351214E-1,3.334059E-1,6.850051E0,4.4405982E-1,7.6383865E-1,5.269367E0,-8.870204E-1,6.628923E5,1.0369064E-1,4.1343324E-2,-2.721851E-1,2.2799125E-1,3.334059E-1,2.1292943E-1,-1.4267564E-2,3.334059E-1,2.3029683E5,1.4209986E6,1.5560068E6,6.2630785E-1,-5.9728795E-1,-3.0062515E-1,-1.0609498E0,8.243957E5,-2.672497E-1,7.7486225E5,1.3272548E0,-2.5297266E-1,9.714417E-2,-2.929745E-1,-1.8236303E-1,-7.715558E-1,-2.8401536E-1,-1.4517468E-1,-1.3687801E4,1.01676844E6,1.0960454E6,1.7883166E6,6.8484225E5,3.1326145E-1,1.6811344E6,1.716701E6,2.0335784E6,-2.0683226E-1,5.0993347E0,3.8899938E5,5.418107E5,6.9089575E5,1.2438182E6,9.272844E5,1.8882451E6,8.9455094E5,2.2423861E5,9.9019E5,5.4428375E5,7.814666E5,9.021608E5,5.3998925E5,8.312828E5,1.4037006E6,8.3423344E5,-5.5180785E4,1.3735852E5,3.094834E5,1.1522833E5,2.8963447E5,4.3936038E5,1.2075281E6,1.3098095E6,6.3766756E5,1.7599303E5,6.205181E5,1.4827731E6],"split_indices":[8,3,8,8,50,8,8,169,8,11,8,11,377,8,8,405,3,0,8,8,8,3,11,8,3,11,0,0,0,8,23,8,3,0,8,0,7,8,8,8,8,5,8,8,0,0,0,0,0,8,0,0,0,3,8,0,0,0,0,0,0,0,0,0,0,0,0,0,0,0,0,0,0,0,0,0,0,0,0,0,0,0,0],"split_type":[0,0,0,0,0,0,0,0,0,0,0,0,0,0,0,0,0,0,0,0,0,0,0,0,0,0,0,0,0,0,0,0,0,0,0,0,0,0,0,0,0,0,0,0,0,0,0,0,0,0,0,0,0,0,0,0,0,0,0,0,0,0,0,0,0,0,0,0,0,0,0,0,0,0,0,0,0,0,0,0,0,0,0],"sum_hessian":[1.2204E4,9.433E3,2.771E3,4.127E3,5.306E3,1.718E3,1.053E3,3.497E3,6.3E2,5.155E3,1.51E2,9.63E2,7.55E2,5.61E2,4.92E2,3.452E3,4.5E1,3.26E2,3.04E2,3.305E3,1.85E3,1.01E2,5E1,9.47E2,1.6E1,7.54E2,1E0,3.8E2,1.81E2,4.77E2,1.5E1,3.355E3,9.7E1,3E1,1.5E1,2.08E2,9.6E1,1.688E3,1.617E3,1.16E3,6.9E2,6.2E1,3.9E1,4.9E1,1E0,5.47E2,4E2,1.3E1,3E0,7.44E2,1E1,3.9E2,8.7E1,8E0,7E0,7.13E2,2.642E3,6.2E1,3.5E1,5E0,1E1,9.5E1,1E0,7.4E1,1.614E3,8.79E2,7.38E2,5.79E2,5.81E2,5.09E2,1.81E2,3.7E1,2.5E1,2.3E1,1.6E1,1.4E1,3.5E1,3.83E2,3.61E2,5E0,3E0,4E0,3E0],"tree_param":{"num_deleted":"0","num_feature":"446","num_nodes":"83","size_leaf_vector":"0"}},{"base_weights":[1.912418E6,1.5595735E6,3.081818E6,1.2511582E6,1.7289415E6,2.6869292E6,3.7499622E6,4.4986253E5,1.3077332E6,1.7093102E6,5.368043E6,2.4839708E6,2.9704002E6,3.5297622E6,4.3079815E6,1.4504506E6,1.638586E5,9.1680544E5,1.390503E6,1.8173242E6,1.2944199E6,5.656515E6,6.939725E5,2.4594028E6,3.5134715E6,2.9509938E6,3.9847175E6,3.3300555E6,3.738475E6,4.4164805E6,2.160343E6,4.2034915E6,1.243864E6,2.9895254E4,1.4765055E6,8.633596E5,3.0416708E6,1.6313472E6,1.1902102E6,2.1376205E6,1.6518238E6,1.106163E6,1.8015505E6,3.8810132E6,6.2326345E6,2.4098098E6,2.6538702E6,1.7911945E6,4.197788E6,2.8339785E6,3.0699472E6,6.525076E5,4.2526875E6,4.600331E6,1.6909885E6,3.1602422E5,1.3719375E6,7.5858875E5,-1.1278089E5,8.264753E5,2.5419068E6,3.7136078E6,1.9352096E6,1.3480612E6,2.3002328E6,6.750244E5,1.484588E6,1.8358142E6,4.3383555E6,1.1981492E6,1.8947771E6,1.436621E6,7.1218494E5,1.6373441E6,1.9698659E6,4.6575095E6,1.7691758E6,7.322483E5,2.0971338E6],"categories":[],"categories_nodes":[],"categories_segments":[],"categories_sizes":[],"default_left":[true,true,true,true,true,true,true,true,true,true,true,true,true,true,true,true,true,true,true,true,true,true,false,true,true,true,true,false,false,false,true,false,true,true,false,true,true,true,true,true,true,true,true,false,false,false,false,false,true,false,false,false,false,false,true,false,false,false,false,false,false,false,false,false,false,false,false,false,false,false,false,false,false,false,false,false,false,false,false],"id":4,"left_children":[1,3,5,7,9,11,13,15,17,19,21,23,25,27,29,31,33,35,37,39,41,43,-1,45,47,49,51,-1,-1,-1,53,-1,55,57,-1,59,61,63,65,67,69,71,73,-1,-1,-1,-1,-1,75,-1,-1,-1,-1,-1,77,-1,-1,-1,-1,-1,-1,-1,-1,-1,-1,-1,-1,-1,-1,-1,-1,-1,-1,-1,-1,-1,-1,-1,-1],"loss_changes":[5.031176E15,4.8770427E14,7.3606935E14,1.502809E14,4.2310797E14,9.508843E13,1.135686E14,6.3006378E13,9.929105E13,2.6742829E14,3.922144E13,1.7764522E13,2.7675696E12,1.9104015E13,5.84996E13,2.2639762E13,3.0377314E13,5.938054E13,1.2169575E14,2.4953438E14,1.170592E14,6.498084E12,0E0,3.4708704E12,1.840974E13,1.4334453E12,7.0473535E12,0E0,0E0,0E0,1.0544405E13,0E0,5.151528E12,1.6512369E13,0E0,3.0960205E13,2.4785317E12,2.1689236E14,2.1177584E14,1.0700245E15,3.451484E14,1.1771304E14,6.0611384E12,0E0,0E0,0E0,0E0,0E0,8.5073404E12,0E0,0E0,0E0,0E0,0E0,4.305193E12,0E0,0E0,0E0,0E0,0E0,0E0,0E0,0E0,0E0,0E0,0E0,0E0,0E0,0E0,0E0,0E0,0E0,0E0,0E0,0E0,0E0,0E0,0E0,0E0],"parents":[2147483647,0,0,1,1,2,2,3,3,4,4,5,5,6,6,7,7,8,8,9,9,10,10,11,11,12,12,13,13,14,14,15,15,16,16,17,17,18,18,19,19,20,20,21,21,23,23,24,24,25,25,26,26,30,30,32,32,33,33,35,35,36,36,37,37,38,38,39,39,40,40,41,41,42,42,48,48,54,54],"right_children":[2,4,6,8,10,12,14,16,18,20,22,24,26,28,30,32,34,36,38,40,42,44,-1,46,48,50,52,-1,-1,-1,54,-1,56,58,-1,60,62,64,66,68,70,72,74,-1,-1,-1,-1,-1,76,-1,-1,-1,-1,-1,78,-1,-1,-1,-1,-1,-1,-1,-1,-1,-1,-1,-1,-1,-1,-1,-1,-1,-1,-1,-1,-1,-1,-1,-1],"split_conditions":[1.536109E-1,-7.3172635E-1,3.8006213E-1,-3.0808455E-1,6.2766476E0,2.7069235E-1,5.490024E-1,-3.1555575E-1,-1.1168557E0,8.783939E-1,3.04909E0,3.334059E-1,3.334059E-1,4.5472175E-1,7.6383865E-1,-9.224742E-1,4.6746974E0,7.4666667E0,-2.212096E-1,-2.1877334E-1,-2.7369708E-2,2.380182E-1,2.0819177E5,2.4593681E-1,-3.6212635E-1,3.2452586E-1,-5.860311E-1,9.990167E5,1.1215425E6,1.3249442E6,-9.7060823E-1,1.2610475E6,-4.4675463E-1,-1.1261734E0,4.4295166E5,7.2010164E0,-2.9174328E-1,-2.865826E-1,-8.41372E-2,-2.5810912E-1,-1.1835271E-2,-2.1985787E-1,6.80636E-2,1.164304E6,1.8697904E6,7.2294294E5,7.961611E5,5.373584E5,-1.4267564E-2,8.5019356E5,9.209842E5,1.957523E5,1.2758062E6,1.3800994E6,-9.224742E-1,9.4807266E4,4.1158128E5,2.2757664E5,-3.383427E4,2.4794261E5,7.6257206E5,1.1140824E6,5.8056294E5,4.044184E5,6.900699E5,2.0250733E5,4.453764E5,5.507443E5,1.3015068E6,3.5944478E5,5.684332E5,4.309863E5,2.1365548E5,4.9120325E5,5.909598E5,1.3972529E6,5.3075275E5,2.196745E5,6.291401E5],"split_indices":[8,3,8,8,169,8,8,8,3,423,1,11,11,8,8,5,150,175,8,8,8,1,0,8,3,8,2,0,0,0,9,0,18,3,0,327,8,8,8,8,8,8,8,0,0,0,0,0,3,0,0,0,0,0,5,0,0,0,0,0,0,0,0,0,0,0,0,0,0,0,0,0,0,0,0,0,0,0,0],"split_type":[0,0,0,0,0,0,0,0,0,0,0,0,0,0,0,0,0,0,0,0,0,0,0,0,0,0,0,0,0,0,0,0,0,0,0,0,0,0,0,0,0,0,0,0,0,0,0,0,0,0,0,0,0,0,0,0,0,0,0,0,0,0,0,0,0,0,0,0,0,0,0,0,0,0,0,0,0,0,0],"sum_hessian":[1.2204E4,9.377E3,2.827E3,3.327E3,6.05E3,1.78E3,1.047E3,2.2E2,3.107E3,6.019E3,3.1E1,1.043E3,7.37E2,7.56E2,2.91E2,4.8E1,1.72E2,5.45E2,2.562E3,4.773E3,1.246E3,2.9E1,2E0,1.022E3,2.1E1,7.27E2,1E1,3.95E2,3.61E2,2.76E2,1.5E1,2E0,4.6E1,1.57E2,1.5E1,5.33E2,1.2E1,1.16E3,1.402E3,1.622E3,3.151E3,9.11E2,3.35E2,9E0,2E1,8.25E2,1.97E2,7E0,1.4E1,3.79E2,3.48E2,1E0,9E0,1E0,1.4E1,6E0,4E1,2.5E1,1.32E2,5.23E2,1E1,6E0,6E0,8.17E2,3.43E2,5.11E2,8.91E2,1.428E3,1.94E2,1.101E3,2.05E3,4.94E2,4.17E2,1.75E2,1.6E2,1.1E1,3E0,5E0,9E0],"tree_param":{"num_deleted":"0","num_feature":"446","num_nodes":"79","size_leaf_vector":"0"}},{"base_weights":[1.3409459E6,1.0706268E6,2.106811E6,7.418833E5,1.1643809E6,1.8467081E6,2.6267468E6,7.090767E5,2.8780145E6,1.6629845E6,9.763084E5,1.6928274E6,2.036337E6,2.4124508E6,2.9274208E6,1.5914806E6,6.304555E5,4.1662365E6,8.729366E5,1.4155554E6,2.9199865E6,6.28193E5,1.2282648E6,1.6684875E6,2.7496165E6,2.0175485E6,3.069231E6,2.2820978E6,2.5371242E6,2.9482552E6,5.418354E5,2.3452758E6,9.0683044E5,-2.6771062E5,7.5379056E5,1.939945E5,1.4271736E6,1.4350324E6,-1.5408506E6,1.9759104E6,4.0417008E6,5.794235E5,3.4664662E6,1.1063578E6,1.3840799E6,1.6255489E6,1.7276096E6,3.4401518E6,1.3697982E6,1.9361506E6,2.142877E6,1.2282065E6,3.4271365E6,2.765532E6,3.2032958E6,6.8998294E5,2.13076E5,1.5340454E6,3.2040305E6,7.89903E5,3.878522E6,-3.3159597E5,3.264998E6,7.177627E5,3.0852085E6,-5.3265188E4,3.9275556E5,-2.28135E4,1.6726404E6,1.3214391E6,1.8495539E6,1.1880035E6,5.2825455E6,3.4280338E6,6.4396895E6,1.4731684E5,7.1546006E5,2.6121644E5,3.7499368E6,1.0867226E6,2.9447378E6,1.3538675E6,1.9171642E6,1.6100938E6,1.9559456E6,3.5782378E6,6.844305E5,1.4648991E6,2.56945E5,3.5903308E6,8.160005E5,2.7764838E6,-2.99935E4,3.2235755E6,-1.5254025E5],"categories":[],"categories_nodes":[],"categories_segments":[],"categories_sizes":[],"default_left":[true,true,true,true,true,true,true,true,true,true,true,true,true,true,true,true,true,false,true,true,true,true,true,true,true,true,true,false,false,true,true,true,true,true,true,true,true,true,false,true,true,true,true,true,true,true,false,true,true,false,false,false,true,true,true,false,false,false,false,false,false,false,false,false,false,false,false,false,false,false,false,false,false,false,false,false,false,false,false,false,false,false,false,false,false,false,false,false,false,false,false,false,false,false,false],"id":5,"left_children":[1,3,5,7,9,11,13,15,17,19,21,23,25,27,29,31,33,-1,35,37,39,41,43,45,47,49,51,-1,-1,53,55,57,59,61,63,65,67,69,-1,71,73,75,77,79,81,83,-1,85,87,-1,-1,-1,89,91,93,-1,-1,-1,-1,-1,-1,-1,-1,-1,-1,-1,-1,-1,-1,-1,-1,-1,-1,-1,-1,-1,-1,-1,-1,-1,-1,-1,-1,-1,-1,-1,-1,-1,-1,-1,-1,-1,-1,-1,-1],"loss_changes":[2.5245195E15,2.7723477E14,4.2560764E14,1.38468E14,6.565738E14,5.8561342E13,6.1172682E13,1.36082885E14,7.38527E13,5.933336E14,4.4646078E14,2.5738397E13,1.2185896E13,4.3510703E12,2.007253E13,8.096309E13,2.0136988E14,0E0,4.6149686E12,9.474564E13,3.255937E14,2.9462778E14,5.4636547E13,1.2401718E11,1.9108008E13,5.369246E12,5.674457E12,0E0,0E0,1.1273215E13,9.650569E10,4.8030082E13,2.6818959E13,5.0734104E13,1.319271E14,3.649394E11,2.5296246E12,7.275379E13,0E0,4.4444476E14,1.8835874E14,1.2380767E14,3.1729843E13,5.68651E13,1.824529E13,3.536637E11,0E0,3.6393808E12,6.819351E11,0E0,0E0,0E0,2.1837392E12,8.01253E12,1.2333401E13,0E0,0E0,0E0,0E0,0E0,0E0,0E0,0E0,0E0,0E0,0E0,0E0,0E0,0E0,0E0,0E0,0E0,0E0,0E0,0E0,0E0,0E0,0E0,0E0,0E0,0E0,0E0,0E0,0E0,0E0,0E0,0E0,0E0,0E0,0E0,0E0,0E0,0E0,0E0,0E0],"parents":[2147483647,0,0,1,1,2,2,3,3,4,4,5,5,6,6,7,7,8,8,9,9,10,10,11,11,12,12,13,13,14,14,15,15,16,16,18,18,19,19,20,20,21,21,22,22,23,23,24,24,25,25,26,26,29,29,30,30,31,31,32,32,33,33,34,34,35,35,36,36,37,37,39,39,40,40,41,41,42,42,43,43,44,44,45,45,47,47,48,48,52,52,53,53,54,54],"right_children":[2,4,6,8,10,12,14,16,18,20,22,24,26,28,30,32,34,-1,36,38,40,42,44,46,48,50,52,-1,-1,54,56,58,60,62,64,66,68,70,-1,72,74,76,78,80,82,84,-1,86,88,-1,-1,-1,90,92,94,-1,-1,-1,-1,-1,-1,-1,-1,-1,-1,-1,-1,-1,-1,-1,-1,-1,-1,-1,-1,-1,-1,-1,-1,-1,-1,-1,-1,-1,-1,-1,-1,-1,-1,-1,-1,-1,-1,-1,-1],"split_conditions":[1.341308E-1,-2.930531E-1,3.6368942E-1,7.4666667E0,-2.1877334E-1,2.4064516E-1,5.0318503E-1,-3.1634164E-1,-9.224742E-1,-2.5722957E-1,-3.8293585E-2,3.334059E-1,3.334059E-1,4.3376464E-1,1.1373098E1,-3.3767283E-1,-3.089831E-1,1.249871E6,-3.0916387E-1,1.1241686E1,1.8965381E-1,5.7907457E0,5.3000696E-2,1.9930732E-1,-3.3767283E-1,3.0933198E-1,-1.2895298E0,6.846294E5,7.611373E5,6.155019E-1,-4.056087E-1,6.030072E-1,6.234979E0,5.5122294E0,7.2010164E0,-3.143376E-1,-6.135186E-1,7.89089E-2,-4.6225522E5,6.7834413E-1,-2.3099394E-1,-1.5718973E-1,3.334059E-1,2.8416922E0,2.3000994E0,4.587566E0,5.182829E5,1.128697E0,1.5770658E0,5.808452E5,6.428631E5,3.6846197E5,1.4354284E0,4.16014E0,6.850051E0,2.0699489E5,6.39228E4,4.6021362E5,9.612092E5,2.369709E5,1.1635566E6,-9.94788E4,9.7949944E5,2.1532881E5,9.2556256E5,-1.5979557E4,1.1782667E5,-6.8440503E3,5.0179212E5,3.9643175E5,5.548662E5,3.5640106E5,1.5847638E6,1.0284102E6,1.9319069E6,4.4195055E4,2.1463803E5,7.836494E4,1.1249811E6,3.260168E5,8.834214E5,4.0616028E5,5.751493E5,4.8302816E5,5.867837E5,1.0734714E6,2.0532916E5,4.3946975E5,7.70835E4,1.0770992E6,2.4480016E5,8.329452E5,-8.998051E3,9.670727E5,-4.576208E4],"split_indices":[8,8,8,175,8,8,8,8,5,8,8,11,11,8,8,4,8,0,8,275,104,215,8,8,4,8,12,0,0,8,3,24,337,170,327,8,17,3,0,3,8,8,11,407,310,297,0,3,5,0,0,0,2,338,377,0,0,0,0,0,0,0,0,0,0,0,0,0,0,0,0,0,0,0,0,0,0,0,0,0,0,0,0,0,0,0,0,0,0,0,0,0,0,0,0],"split_type":[0,0,0,0,0,0,0,0,0,0,0,0,0,0,0,0,0,0,0,0,0,0,0,0,0,0,0,0,0,0,0,0,0,0,0,0,0,0,0,0,0,0,0,0,0,0,0,0,0,0,0,0,0,0,0,0,0,0,0,0,0,0,0,0,0,0,0,0,0,0,0,0,0,0,0,0,0,0,0,0,0,0,0,0,0,0,0,0,0,0,0,0,0,0,0],"sum_hessian":[1.2204E4,9.022E3,3.182E3,2.004E3,7.018E3,2.124E3,1.058E3,1.975E3,2.9E1,1.92E3,5.098E3,1.178E3,9.46E2,6.23E2,4.35E2,1.6E2,1.815E3,1.7E1,1.2E1,1.606E3,3.14E2,2.142E3,2.956E3,1.154E3,2.4E1,9.32E2,1.4E1,3.14E2,3.09E2,4.31E2,4E0,7.5E1,8.5E1,2.19E2,1.596E3,6E0,6E0,1.596E3,1E1,1.72E2,1.42E2,2.107E3,3.5E1,1.663E3,1.293E3,6.85E2,4.69E2,1.5E1,9E0,5.75E2,3.57E2,3E0,1.1E1,2.58E2,1.73E2,2E0,2E0,4E1,3.5E1,8.3E1,2E0,2.16E2,3E0,1.573E3,2.3E1,3E0,3E0,1E0,5E0,1.256E3,3.4E2,1.4E2,3.2E1,1.15E2,2.7E1,5.05E2,1.602E3,3E0,3.2E1,1.647E3,1.6E1,1.227E3,6.6E1,6.6E2,2.5E1,1.4E1,1E0,8E0,1E0,1E1,1E0,2.57E2,1E0,1.72E2,1E0],"tree_param":{"num_deleted":"0","num_feature":"446","num_nodes":"95","size_leaf_vector":"0"}},{"base_weights":[9.407508E5,7.500286E5,1.474955E6,7.38318E5,2.1331275E6,1.2935152E6,1.8417496E6,7.283323E5,2.3062575E6,1.2065978E6,2.87204E6,1.2046354E6,1.4663101E6,1.7283429E6,2.134106E6,4.81183E5,7.895128E5,4.32738E6,1.3142968E6,2.579856E6,1.04519256E6,5.1567438E5,3.0444985E6,1.1846486E6,2.0951945E6,1.4537831E6,2.1484062E6,1.5988174E6,1.8137434E6,2.1909782E6,1.0161223E6,4.5261825E5,2.4477572E6,6.6385975E5,1.04434025E6,6.215621E6,3.123009E6,1.4019501E6,-1.00826475E6,7.457996E5,1.5761785E6,5.94844E5,3.0946285E6,1.1463572E6,1.2614051E6,2.511938E6,1.0105138E6,3.704005E5,2.2891668E6,2.0799141E6,2.7970352E6,3.426745E6,6.2696444E5,4.2879378E5,2.8392728E6,6.2354075E5,2.6681712E6,1.8052803E5,7.8841106E5,1.4125495E6,7.9213106E5,3.5446428E6,5.36016E5,1.834074E6,9.647986E5,1.170525E5,7.6905844E5,1.8971072E6,8.116424E5,1.141747E6,1.9431535E6,2.6684598E6,6.8332E5,1.0742591E6,2.18403E5,2.0888919E6,6.803593E5,1.2101982E6,2.1432772E5],"categories":[],"categories_nodes":[],"categories_segments":[],"categories_sizes":[],"default_left":[true,true,true,true,true,true,true,true,true,true,true,true,true,true,true,true,true,true,true,false,true,false,true,true,true,false,true,false,false,true,true,true,true,true,true,false,true,true,false,true,true,false,false,true,false,true,true,false,false,true,false,false,true,false,false,false,false,false,false,false,false,false,false,false,false,false,false,false,false,false,false,false,false,false,false,false,false,false,false],"id":6,"left_children":[1,3,5,7,9,11,13,15,17,19,21,23,25,27,29,31,33,35,37,-1,39,-1,41,43,45,-1,47,-1,-1,49,51,53,55,57,59,-1,61,63,-1,65,67,-1,-1,69,-1,71,73,-1,-1,75,-1,-1,77,-1,-1,-1,-1,-1,-1,-1,-1,-1,-1,-1,-1,-1,-1,-1,-1,-1,-1,-1,-1,-1,-1,-1,-1,-1,-1],"loss_changes":[1.2423945E15,1.441332E14,2.112469E14,1.3801072E14,4.7881403E13,3.1268436E13,3.1456072E13,1.3369589E14,1.0658552E14,5.061342E12,1.5091441E13,2.2899826E13,3.0801626E12,5.606543E12,1.6339666E13,9.787194E13,2.2684004E14,2.1523121E13,9.353164E12,0E0,4.0706098E12,0E0,2.8255852E12,2.6600612E12,1.1022656E13,0E0,1.9050906E12,0E0,0E0,1.2827591E13,1.2861356E13,9.760659E13,8.3883563E12,2.86528E14,2.166513E14,0E0,1.2279932E13,5.408832E12,0E0,2.4633043E11,1.159205E12,0E0,0E0,1.2452721E12,0E0,4.187182E12,2.703124E11,0E0,0E0,1.5692737E12,0E0,0E0,3.3505768E12,0E0,0E0,0E0,0E0,0E0,0E0,0E0,0E0,0E0,0E0,0E0,0E0,0E0,0E0,0E0,0E0,0E0,0E0,0E0,0E0,0E0,0E0,0E0,0E0,0E0,0E0],"parents":[2147483647,0,0,1,1,2,2,3,3,4,4,5,5,6,6,7,7,8,8,9,9,10,10,11,11,12,12,13,13,14,14,15,15,16,16,17,17,18,18,20,20,22,22,23,23,24,24,26,26,29,29,30,30,31,31,32,32,33,33,34,34,36,36,37,37,39,39,40,40,43,43,45,45,46,46,49,49,52,52],"right_children":[2,4,6,8,10,12,14,16,18,20,22,24,26,28,30,32,34,36,38,-1,40,-1,42,44,46,-1,48,-1,-1,50,52,54,56,58,60,-1,62,64,-1,66,68,-1,-1,70,-1,72,74,-1,-1,76,-1,-1,78,-1,-1,-1,-1,-1,-1,-1,-1,-1,-1,-1,-1,-1,-1,-1,-1,-1,-1,-1,-1,-1,-1,-1,-1,-1,-1],"split_conditions":[1.311968E-1,6.2766476E0,3.6041486E-1,7.2010164E0,-8.3111453E-1,2.7069235E-1,5.490024E-1,-2.9551554E-1,-3.3767283E-1,-2.9541075E-1,3.334059E-1,3.334059E-1,3.334059E-1,4.298352E-1,7.6383865E-1,6.9613905E0,3.334059E-1,-9.224742E-1,2.2138548E0,7.739568E5,-2.7537054E-1,1.5470231E5,-2.7746627E-1,2.032407E-1,-3.3767283E-1,4.3613497E5,-5.860311E-1,4.7964522E5,5.4412306E5,6.5119433E-1,-9.7060823E-1,5.294829E0,-9.7060823E-1,-9.662762E-2,-3.3767283E-1,1.8646864E6,-2.69424E-1,-2.9381016E-1,-3.0247944E5,-2.9239818E-1,-1.5172379E-1,1.784532E5,9.2838856E5,8.690559E0,3.7842156E5,2.538743E-1,1.5770658E0,1.1112016E5,6.8675006E5,4.16014E0,8.391106E5,1.02802356E6,-3.0932635E-1,1.2863814E5,8.517819E5,1.8706223E5,8.0045144E5,5.415841E4,2.3652333E5,4.2376488E5,2.3763933E5,1.0633929E6,1.6080481E5,5.5022225E5,2.894396E5,3.511575E4,2.3071755E5,5.691322E5,2.4349272E5,3.4252412E5,5.8294606E5,8.0053794E5,2.0499602E5,3.2227775E5,6.5520902E4,6.2666756E5,2.041078E5,3.630595E5,6.4298316E4],"split_indices":[8,169,8,327,3,8,8,8,4,8,11,11,11,8,8,221,11,5,6,0,8,0,8,8,4,0,2,0,0,8,9,155,9,8,4,0,8,8,0,8,8,0,0,180,0,8,5,0,0,338,0,0,3,0,0,0,0,0,0,0,0,0,0,0,0,0,0,0,0,0,0,0,0,0,0,0,0,0,0],"split_type":[0,0,0,0,0,0,0,0,0,0,0,0,0,0,0,0,0,0,0,0,0,0,0,0,0,0,0,0,0,0,0,0,0,0,0,0,0,0,0,0,0,0,0,0,0,0,0,0,0,0,0,0,0,0,0,0,0,0,0,0,0,0,0,0,0,0,0,0,0,0,0,0,0,0,0,0,0,0,0],"sum_hessian":[1.2204E4,8.995E3,3.209E3,8.921E3,7.4E1,2.15E3,1.059E3,8.866E3,5.5E1,3.4E1,4E1,1.425E3,7.25E2,7.68E2,2.91E2,1.761E3,7.105E3,1.7E1,3.8E1,2E0,3.2E1,3E0,3.7E1,1.396E3,2.9E1,7.15E2,1E1,3.13E2,4.55E2,2.76E2,1.5E1,1.737E3,2.4E1,4.761E3,2.344E3,5E0,1.2E1,3.7E1,1E0,2.2E1,1E1,1E0,3.6E1,9.42E2,4.54E2,2E1,9E0,1E0,9E0,2.37E2,3.9E1,1E0,1.4E1,1.721E3,1.6E1,3E0,2.1E1,9.76E2,3.785E3,9.51E2,1.393E3,1E1,2E0,1.7E1,2E1,1E0,2.1E1,6E0,4E0,9.39E2,3E0,1.8E1,2E0,8E0,1E0,2.35E2,2E0,5E0,9E0],"tree_param":{"num_deleted":"0","num_feature":"446","num_nodes":"79","size_leaf_vector":"0"}},{"base_weights":[6.59979E5,5.034668E5,9.9515775E5,4.9189378E5,1.6463382E6,8.555116E5,1.2395755E6,4.3261862E5,7.2981394E5,1.0530876E6,2.5589225E6,8.394318E5,1.6510594E6,1.1416439E6,1.4500718E6,1.9254055E5,5.01449E5,1.663911E6,6.158214E5,5.66387E5,1.5180042E6,3.98951E6,1.5010944E6,8.0547575E5,9.5231E5,7.549572E5,1.9978381E6,1.096262E6,1.2320966E6,1.460271E6,2.6252522E5,1.1860041E6,1.3080269E5,9.5224494E5,3.991156E5,2.5109672E6,1.1423335E6,4.966441E5,1.0928704E6,2.8918353E5,7.388904E5,2.43211E6,7.946814E5,1.8742561E6,5.0772615E6,2.567925E6,9.7428906E5,7.9173906E5,9.419626E5,4.938677E5,2.205105E6,2.869898E6,1.4559878E6,1.5191875E6,1.089992E6,1.385566E6,1.7169834E6,2.975115E5,6.1290062E4,7.6055094E5,2.551972E6,-3.0961403E5,2.4599289E5,8.3712106E5,3.9314145E6,-1.04326625E5,4.723847E5,1.35407E6,3.8926718E6,1.248721E6,-2.0423098E6,3.4179322E5,1.02652194E6,1.2244365E6,2.3171584E4,3.476381E5,-1.7690825E5,8.4512694E5,4.20975E5,2.7308665E6,1.2265692E6,1.0783722E6,-4.511305E4,7.880956E5,4.085056E6,-8.551875E3,1.220712E6,7.846169E5,9.775001E5,7.7579956E5,2.8378975E6,6.3624194E5,-6.78499E5,3.0977985E6,1.81497E5,3.7776734E5,1.7345064E6,3.1484044E5,1.6674386E6,1.0918834E6,-6.5924E4,1.3888749E6,5.442873E5,1.8046439E6,9.602771E5],"categories":[],"categories_nodes":[],"categories_segments":[],"categories_sizes":[],"default_left":[true,true,true,true,true,true,true,true,true,true,true,true,true,true,true,true,true,true,true,true,true,true,true,true,false,true,true,true,false,true,true,true,true,true,true,true,true,true,true,true,true,true,true,false,false,true,true,true,true,true,false,true,true,true,true,true,true,false,false,false,false,false,false,false,false,false,false,false,false,false,false,false,false,false,false,false,false,false,false,false,false,false,false,false,false,false,false,false,false,false,false,false,false,false,false,false,false,false,false,false,false,false,false,false,false],"id":7,"left_children":[1,3,5,7,9,11,13,15,17,19,21,23,25,27,29,31,33,35,37,39,41,43,45,47,-1,49,51,53,-1,55,57,59,61,63,65,67,69,71,73,75,77,79,81,-1,-1,83,85,87,89,91,-1,93,95,97,99,101,103,-1,-1,-1,-1,-1,-1,-1,-1,-1,-1,-1,-1,-1,-1,-1,-1,-1,-1,-1,-1,-1,-1,-1,-1,-1,-1,-1,-1,-1,-1,-1,-1,-1,-1,-1,-1,-1,-1,-1,-1,-1,-1,-1,-1,-1,-1,-1,-1],"loss_changes":[6.397676E14,1.09261015E14,1.3150814E14,1.158911E14,4.22407E13,3.0274956E13,2.7410616E13,1.08949764E14,1.7381565E14,1.0906533E13,4.2437465E13,8.5393345E12,1.3407672E13,2.618722E12,4.994376E12,9.012897E13,2.3618213E14,7.5773055E13,8.274748E13,1.07742495E12,1.5258278E13,2.039524E13,8.7383417E12,2.7658247E12,0E0,4.590245E12,1.1887345E13,7.56988E10,0E0,6.059192E12,1.696786E10,4.8038446E13,7.044101E13,3.2184774E14,1.5427274E14,1.018279E14,4.0496576E13,9.5978225E13,4.1066565E13,3.884423E11,1.846102E11,6.121964E11,3.8605213E12,0E0,0E0,1.2981992E13,3.643356E12,1.4927696E12,5.0094083E13,2.7684978E12,0E0,6.790016E12,6.2517653E12,7.248439E11,1.4865284E12,2.0723217E11,4.5687044E12,0E0,0E0,0E0,0E0,0E0,0E0,0E0,0E0,0E0,0E0,0E0,0E0,0E0,0E0,0E0,0E0,0E0,0E0,0E0,0E0,0E0,0E0,0E0,0E0,0E0,0E0,0E0,0E0,0E0,0E0,0E0,0E0,0E0,0E0,0E0,0E0,0E0,0E0,0E0,0E0,0E0,0E0,0E0,0E0,0E0,0E0,0E0,0E0],"parents":[2147483647,0,0,1,1,2,2,3,3,4,4,5,5,6,6,7,7,8,8,9,9,10,10,11,11,12,12,13,13,14,14,15,15,16,16,17,17,18,18,19,19,20,20,21,21,22,22,23,23,25,25,26,26,27,27,29,29,30,30,31,31,32,32,33,33,34,34,35,35,36,36,37,37,38,38,39,39,40,40,41,41,42,42,45,45,46,46,47,47,48,48,49,49,51,51,52,52,53,53,54,54,55,55,56,56],"right_children":[2,4,6,8,10,12,14,16,18,20,22,24,26,28,30,32,34,36,38,40,42,44,46,48,-1,50,52,54,-1,56,58,60,62,64,66,68,70,72,74,76,78,80,82,-1,-1,84,86,88,90,92,-1,94,96,98,100,102,104,-1,-1,-1,-1,-1,-1,-1,-1,-1,-1,-1,-1,-1,-1,-1,-1,-1,-1,-1,-1,-1,-1,-1,-1,-1,-1,-1,-1,-1,-1,-1,-1,-1,-1,-1,-1,-1,-1,-1,-1,-1,-1,-1,-1,-1,-1,-1,-1],"split_conditions":[8.875872E-2,5.7907457E0,3.198105E-1,-1.2792155E-2,-1.7611913E-1,3.334059E-1,5.001724E-1,-2.8621584E-1,-9.224742E-1,-2.643681E-1,-9.016235E-2,2.5086173E-1,-4.211381E-1,4.2721558E-1,1.1373098E1,-3.233087E-1,-2.1967712E-1,-3.3767283E-1,-2.9690284E-1,-2.807156E-1,-2.4288708E-1,-1.4863262E-1,-2.4720871E-1,2.3000994E0,2.85693E5,2.7553868E-1,4.7821423E-1,-1.1995715E0,3.69629E5,6.4202565E-1,1.1058867E0,3.334059E-1,-3.05785E-1,-2.2947454E-1,-1.4519387E-1,3.463425E-1,6.56603E-1,8.8335216E-1,-1.7922994E-1,1.5770658E0,4.2469862E-1,1.998344E0,1.5770658E0,5.622769E5,1.5231785E6,-3.8386753E-1,-4.9499166E-3,4.587566E0,-7.949109E-2,2.6686347E0,6.615315E5,1.5252354E0,-9.7060823E-1,-5.6090283E-1,3.334059E-1,4.16014E0,7.6383865E-1,8.925345E4,1.838702E4,2.281653E5,7.655916E5,-9.288421E4,7.379787E4,2.5113633E5,1.1794244E6,-3.1297988E4,1.417154E5,4.0622103E5,1.1678016E6,3.746163E5,-6.1269294E5,1.0253797E5,3.079566E5,3.6733097E5,6.9514756E3,1.0429143E5,-5.3072477E4,2.535381E5,1.2629251E5,8.1926E5,3.6797078E5,3.235117E5,-1.3533916E4,2.364287E5,1.2255169E6,-2.5655625E3,3.6621362E5,2.3538508E5,2.9325006E5,2.3273988E5,8.513693E5,1.908726E5,-2.035497E5,9.2933956E5,5.44491E4,1.1333021E5,5.2035194E5,9.445213E4,5.002316E5,3.2756503E5,-1.9777201E4,4.1666247E5,1.632862E5,5.413932E5,2.8808316E5],"split_indices":[8,215,8,7,8,11,8,8,5,8,8,8,3,8,8,8,8,4,3,8,8,8,3,310,0,8,5,10,0,8,0,11,8,8,8,432,3,4,8,5,2,3,5,0,0,3,3,297,3,256,0,87,9,3,11,338,8,0,0,0,0,0,0,0,0,0,0,0,0,0,0,0,0,0,0,0,0,0,0,0,0,0,0,0,0,0,0,0,0,0,0,0,0,0,0,0,0,0,0,0,0,0,0,0,0],"split_type":[0,0,0,0,0,0,0,0,0,0,0,0,0,0,0,0,0,0,0,0,0,0,0,0,0,0,0,0,0,0,0,0,0,0,0,0,0,0,0,0,0,0,0,0,0,0,0,0,0,0,0,0,0,0,0,0,0,0,0,0,0,0,0,0,0,0,0,0,0,0,0,0,0,0,0,0,0,0,0,0,0,0,0,0,0,0,0,0,0,0,0,0,0,0,0,0,0,0,0,0,0,0,0,0,0],"sum_hessian":[1.2204E4,8.321E3,3.883E3,8.239E3,8.2E1,2.474E3,1.409E3,6.598E3,1.641E3,5.1E1,3.1E1,2.427E3,4.7E1,9.66E2,4.43E2,1.471E3,5.127E3,1.77E2,1.464E3,2.6E1,2.5E1,1.2E1,1.9E1,1.872E3,5.55E2,1.4E1,3.3E1,6.52E2,3.14E2,4.39E2,4E0,8.5E1,1.386E3,9.47E2,4.18E3,6.6E1,1.11E2,1.173E3,2.91E2,1.1E1,1.5E1,1E1,1.5E1,5E0,7E0,5E0,1.4E1,1.707E3,1.65E2,1.3E1,1E0,1.1E1,2.2E1,6E0,6.46E2,3.45E2,9.4E1,3E0,1E0,6.6E1,1.9E1,2.87E2,1.099E3,9.13E2,3.4E1,5.31E2,3.649E3,3.7E1,2.9E1,1.08E2,3E0,9.09E2,2.64E2,2.59E2,3.2E1,1E1,1E0,1E1,5E0,7E0,3E0,1.1E1,4E0,3E0,2E0,3E0,1.1E1,1.649E3,5.8E1,1.53E2,1.2E1,1.2E1,1E0,1E1,1E0,5E0,1.7E1,1E0,5E0,6.45E2,1E0,3.43E2,2E0,8.3E1,1.1E1],"tree_param":{"num_deleted":"0","num_feature":"446","num_nodes":"105","size_leaf_vector":"0"}},{"base_weights":[4.6341334E5,3.5136112E5,6.9480394E5,3.6000816E5,-8.7243825E5,5.9842256E5,8.693532E5,3.062173E5,5.54553E5,-2.6432706E5,-1.4311978E6,5.8621325E5,1.2141162E6,8.0118075E5,1.02093856E6,2.9745875E5,1.6252209E6,5.4207794E5,3.6154788E6,-4.1128066E5,-9.97517E4,-7.3828006E5,-1.9176478E6,5.5328906E5,6.535515E5,9.512258E5,1.945426E6,1.352261E6,7.958263E5,1.0266031E6,-1.369587E5,3.0874603E5,-6.398827E5,2.2385512E6,7.649496E5,5.1892003E5,2.0683558E6,4.5381705E6,8.724998E5,-4.5677456E5,-7.7046836E4,-2.0173514E5,1.445622E5,-1.3866876E6,-3.402483E5,-3.067852E5,-2.389699E6,5.511323E5,1.3294052E6,6.282569E5,6.830502E5,1.8935681E5,1.2165591E6,2.07774E5,2.0845059E6,1.5168384E6,1.001095E5,7.6248394E5,8.5705006E5,9.8895375E5,1.2834391E6,-2.5753462E5,5.2096562E4,3.0647003E5,4.9725435E6,-3.296375E5,-8.139916E5,1.745672E6,3.1861622E6,4.7357534E5,3.0048435E6,7.1661425E5,3.409467E5,7.192719E5,3.362111E6,1.1439165E6,1.6483325E5,-2.637025E5,-5.845931E5,-2.4290116E5,1.049625E5,1.80656E5,9.35E1,-1.0940667E4,-6.673679E5,-4.8331116E5,-2.79975E4,-1.01033575E6,-2.7024742E6,6.401878E5,5.364407E5,1.68439E5,1.6602476E6,7.4929906E5,6.4371556E5,3.236373E5,-5.76724E5,1.3886654E6,1.471374E5,5.370795E5,2.1855405E6,2.6761438E5,1.68044E6,7.6385475E5,-5.60355E4,9.3683444E5,1.05395E6,4.634825E4,1.3582335E6],"categories":[],"categories_nodes":[],"categories_segments":[],"categories_sizes":[],"default_left":[true,true,true,true,true,true,true,true,true,true,true,true,true,true,true,true,true,true,true,true,true,true,true,true,true,true,true,true,true,true,true,true,true,true,true,true,true,false,true,true,false,true,true,false,true,true,true,true,true,false,true,true,true,false,true,true,false,true,false,true,true,false,false,false,false,false,false,false,false,false,false,false,false,false,false,false,false,false,false,false,false,false,false,false,false,false,false,false,false,false,false,false,false,false,false,false,false,false,false,false,false,false,false,false,false,false,false,false,false],"id":8,"left_children":[1,3,5,7,9,11,13,15,17,19,21,23,25,27,29,31,33,35,37,39,41,43,45,47,49,51,53,55,57,59,61,63,65,67,69,71,73,-1,75,77,-1,79,81,-1,83,85,87,89,91,-1,93,95,97,-1,99,101,-1,103,-1,105,107,-1,-1,-1,-1,-1,-1,-1,-1,-1,-1,-1,-1,-1,-1,-1,-1,-1,-1,-1,-1,-1,-1,-1,-1,-1,-1,-1,-1,-1,-1,-1,-1,-1,-1,-1,-1,-1,-1,-1,-1,-1,-1,-1,-1,-1,-1,-1,-1],"loss_changes":[3.162049E14,8.735299E13,6.6453345E13,8.530617E13,1.9329395E13,1.8592377E13,1.3794227E13,7.346448E13,6.555157E13,6.6033746E11,8.6963357E12,5.2254317E12,7.569922E12,1.8155632E12,2.99376E12,6.748652E13,2.0448096E13,6.1205297E13,1.3756914E13,1.9289106E11,4.0290288E11,3.1413969E12,1.2193836E13,2.1112113E12,1.8421383E11,7.451307E12,2.4669596E12,1.4967563E12,1.3327149E12,2.9177256E12,8.1803215E10,6.519029E13,3.8369304E12,5.6473955E12,1.0977283E13,6.0870827E13,4.2961727E13,0E0,3.8766222E11,1.6665805E11,0E0,1.6437618E11,2.605523E10,0E0,1.06992815E12,2.325348E11,2.8781985E12,1.8755585E12,1.2567367E12,0E0,4.7662393E11,1.318216E12,4.9491906E12,0E0,5.4597675E11,9.809156E11,0E0,7.59773E11,0E0,3.066875E11,4.748472E12,0E0,0E0,0E0,0E0,0E0,0E0,0E0,0E0,0E0,0E0,0E0,0E0,0E0,0E0,0E0,0E0,0E0,0E0,0E0,0E0,0E0,0E0,0E0,0E0,0E0,0E0,0E0,0E0,0E0,0E0,0E0,0E0,0E0,0E0,0E0,0E0,0E0,0E0,0E0,0E0,0E0,0E0,0E0,0E0,0E0,0E0,0E0,0E0],"parents":[2147483647,0,0,1,1,2,2,3,3,4,4,5,5,6,6,7,7,8,8,9,9,10,10,11,11,12,12,13,13,14,14,15,15,16,16,17,17,18,18,19,19,20,20,21,21,22,22,23,23,24,24,25,25,26,26,27,27,28,28,29,29,30,30,31,31,32,32,33,33,34,34,35,35,36,36,38,38,39,39,41,41,42,42,44,44,45,45,46,46,47,47,48,48,50,50,51,51,52,52,54,54,55,55,57,57,59,59,60,60],"right_children":[2,4,6,8,10,12,14,16,18,20,22,24,26,28,30,32,34,36,38,40,42,44,46,48,50,52,54,56,58,60,62,64,66,68,70,72,74,-1,76,78,-1,80,82,-1,84,86,88,90,92,-1,94,96,98,-1,100,102,-1,104,-1,106,108,-1,-1,-1,-1,-1,-1,-1,-1,-1,-1,-1,-1,-1,-1,-1,-1,-1,-1,-1,-1,-1,-1,-1,-1,-1,-1,-1,-1,-1,-1,-1,-1,-1,-1,-1,-1,-1,-1,-1,-1,-1,-1,-1,-1,-1,-1,-1,-1],"split_conditions":[8.116177E-2,7.2648115E0,3.1692892E-1,4.2469862E-1,-2.978025E-1,3.334059E-1,5.058046E-1,7.4666667E0,8.690559E0,-2.9731804E-1,-2.9731804E-1,2.032407E-1,6.030072E-1,-1.1995715E0,4.1473594E0,6.1540136E0,-9.224742E-1,2.8416922E0,4.9199125E-1,-3.0313867E-1,-3.3767283E-1,-5.9728795E-1,3.334059E-1,8.690559E0,2.7134728E-1,-4.211381E-1,-5.950675E-1,1.4354284E0,4.1542733E-1,6.5905327E-1,1.1058867E0,2.4687044E1,1.3272548E0,-2.2236165E-1,2.2138548E0,-2.2062019E-1,4.7821423E-1,1.3614512E6,2.112066E0,-5.860311E-1,-2.311405E4,1.5770658E0,-8.1247926E-1,-4.160063E5,-6.6701365E-1,-1.9101831E-1,-2.922672E-1,-1.2895298E0,-5.860311E-1,1.8847706E5,2.8342378E-1,2.6686347E0,1.1058867E0,6.2332203E4,-6.6701365E-1,-5.6090283E-1,3.0032852E4,3.334059E-1,2.5711503E5,5.9225255E-1,-5.860311E-1,-7.726039E4,1.562897E4,9.1941016E4,1.4917631E6,-9.889126E4,-2.441975E5,5.2370162E5,9.558487E5,1.4207261E5,9.0145306E5,2.1498428E5,1.0228401E5,2.1578158E5,1.0086333E6,3.4317497E5,4.9449977E4,-7.911075E4,-1.7537794E5,-7.287035E4,3.1488752E4,5.41968E4,2.8050001E1,-3.2822002E3,-2.0021038E5,-1.4499336E5,-8.39925E3,-3.0310075E5,-8.107423E5,1.9205634E5,1.6093222E5,5.0531703E4,4.980743E5,2.2478973E5,1.9311467E5,9.7091195E4,-1.730172E5,4.1659962E5,4.4141223E4,1.6112386E5,6.556622E5,8.028431E4,5.0413203E5,2.2915644E5,-1.681065E4,2.8105034E5,3.16185E5,1.3904476E4,4.0747006E5],"split_indices":[8,366,8,2,8,11,8,175,392,19,19,8,24,10,50,313,5,407,3,8,4,23,11,180,8,3,3,2,8,8,0,37,7,3,6,8,5,0,1,2,0,5,3,0,22,8,8,12,2,0,8,256,0,0,22,3,0,11,0,8,2,0,0,0,0,0,0,0,0,0,0,0,0,0,0,0,0,0,0,0,0,0,0,0,0,0,0,0,0,0,0,0,0,0,0,0,0,0,0,0,0,0,0,0,0,0,0,0,0],"split_type":[0,0,0,0,0,0,0,0,0,0,0,0,0,0,0,0,0,0,0,0,0,0,0,0,0,0,0,0,0,0,0,0,0,0,0,0,0,0,0,0,0,0,0,0,0,0,0,0,0,0,0,0,0,0,0,0,0,0,0,0,0,0,0,0,0,0,0,0,0,0,0,0,0,0,0,0,0,0,0,0,0,0,0,0,0,0,0,0,0,0,0,0,0,0,0,0,0,0,0,0,0,0,0,0,0,0,0,0,0],"sum_hessian":[1.2204E4,8.224E3,3.98E3,8.167E3,5.7E1,2.567E3,1.413E3,6.4E3,1.767E3,2.8E1,2.9E1,2.519E3,4.8E1,9.79E2,4.34E2,6.359E3,4.1E1,1.761E3,6E0,1.4E1,1.4E1,1.3E1,1.6E1,1.698E3,8.21E2,3.7E1,1.1E1,7E0,9.72E2,4.32E2,2E0,6.284E3,7.5E1,2.3E1,1.8E1,1.736E3,2.5E1,4E0,2E0,1.2E1,2E0,1E1,4E0,4E0,9E0,4E0,1.2E1,1.695E3,3E0,4.54E2,3.67E2,1E1,2.7E1,1E0,1E1,6E0,1E0,6.38E2,3.34E2,3.81E2,5.1E1,1E0,1E0,6.282E3,2E0,2.8E1,4.7E1,1.7E1,6E0,1.7E1,1E0,8.21E2,9.15E2,1.3E1,1.2E1,1E0,1E0,6E0,6E0,9E0,1E0,3E0,1E0,5E0,4E0,2E0,2E0,3E0,9E0,2.34E2,1.461E3,1E0,2E0,1.3E2,2.37E2,9E0,1E0,2.3E1,4E0,1E0,9E0,1E0,5E0,6.37E2,1E0,2.2E2,1.61E2,3E0,4.8E1],"tree_param":{"num_deleted":"0","num_feature":"446","num_nodes":"109","size_leaf_vector":"0"}},{"base_weights":[3.2518584E5,2.3708536E5,4.7640625E5,5.8226527E4,2.9029697E5,4.257119E5,6.4013956E5,4.9209492E4,3.2313982E6,2.8198122E5,2.2481898E6,9.709725E5,4.1964762E5,6.051115E5,7.749935E5,-1.426124E5,1.8107439E5,3.8597262E6,3.59043E5,2.7298722E5,1.3542206E6,3.9006822E6,8.8648244E5,5.997227E4,1.4619321E6,3.899687E5,4.7868725E5,1.3858782E6,6.00689E5,7.9068794E5,-4.2311977E4,-4.6667478E5,-9.5449554E2,1.6636395E5,2.3428588E6,3.174765E5,2.8412326E4,2.7020635E6,6.1884025E5,-3.17454E5,4.3542415E6,1.3935825E6,2.6857212E5,3.0336388E5,-6.2434775E5,2.579167E6,1.1095268E6,3.8796212E5,9.820899E5,4.7398994E5,8.199454E5,5.616201E5,6.358711E5,7.70025E5,2.5649565E6,1.0110304E5,-1.71623E5,-2.906371E5,-1.4500799E6,-1.2435423E4,2.875495E6,-3.6817503E5,2.1610961E5,1.3153464E6,3.2744265E6,5.7009056E5,2.6039653E5,-3.5085156E4,8.776181E5,3.526796E6,1.33339E6,7.042399E5,-1.0569738E6,6.386051E5,1.9889085E6,7.1224336E4,3.22484E5,3.8181456E5,-3.3109418E4,1.5011375E6,-5.4421168E4,3.827354E5,5.311722E5,1.190606E6,3.0719966E5,4.5604112E5,5.1516362E5,4.1071638E5,1.7403388E6,6.3894075E5,-3.497165E5,8.0648744E5,3.7068703E4],"categories":[],"categories_nodes":[],"categories_segments":[],"categories_sizes":[],"default_left":[true,true,true,true,true,true,true,true,true,true,true,true,true,true,true,true,true,false,false,true,true,true,true,true,true,true,true,false,true,true,true,true,true,true,true,true,true,true,true,false,false,true,true,true,false,false,true,true,true,true,true,false,true,true,false,false,false,false,false,false,false,false,false,false,false,false,false,false,false,false,false,false,false,false,false,false,false,false,false,false,false,false,false,false,false,false,false,false,false,false,false,false,false],"id":9,"left_children":[1,3,5,7,9,11,13,15,17,19,21,23,25,27,29,31,33,-1,-1,35,37,39,41,43,45,47,49,-1,51,53,55,57,59,61,63,65,67,69,71,-1,-1,73,75,77,-1,-1,79,81,83,85,87,-1,89,91,-1,-1,-1,-1,-1,-1,-1,-1,-1,-1,-1,-1,-1,-1,-1,-1,-1,-1,-1,-1,-1,-1,-1,-1,-1,-1,-1,-1,-1,-1,-1,-1,-1,-1,-1,-1,-1,-1,-1],"loss_changes":[1.6248935E14,7.340005E13,3.7012686E13,5.048529E13,9.6158815E13,1.0944114E13,4.5381363E12,4.4696043E13,7.638096E12,5.6730713E13,5.2797404E13,1.6461102E13,5.765658E12,2.0886963E12,2.791301E12,3.3051875E13,3.2905665E13,0E0,0E0,6.3894886E13,4.689555E13,2.2427195E13,4.3258583E12,2.5212132E12,6.587616E12,2.3112628E12,1.4259459E12,0E0,8.016154E11,5.760524E12,1.1007732E11,3.749103E13,1.661396E13,2.7760785E13,2.3933747E12,7.150057E13,4.8830586E13,1.4486824E13,5.467121E12,0E0,0E0,2.325534E12,6.2146413E10,3.030038E11,0E0,0E0,9.197983E12,1.4883404E12,6.1932464E11,5.920344E11,4.558338E12,0E0,1.5425308E12,5.5824425E12,0E0,0E0,0E0,0E0,0E0,0E0,0E0,0E0,0E0,0E0,0E0,0E0,0E0,0E0,0E0,0E0,0E0,0E0,0E0,0E0,0E0,0E0,0E0,0E0,0E0,0E0,0E0,0E0,0E0,0E0,0E0,0E0,0E0,0E0,0E0,0E0,0E0,0E0,0E0],"parents":[2147483647,0,0,1,1,2,2,3,3,4,4,5,5,6,6,7,7,8,8,9,9,10,10,11,11,12,12,13,13,14,14,15,15,16,16,19,19,20,20,21,21,22,22,23,23,24,24,25,25,26,26,28,28,29,29,30,30,31,31,32,32,33,33,34,34,35,35,36,36,37,37,38,38,41,41,42,42,43,43,46,46,47,47,48,48,49,49,50,50,52,52,53,53],"right_children":[2,4,6,8,10,12,14,16,18,20,22,24,26,28,30,32,34,-1,-1,36,38,40,42,44,46,48,50,-1,52,54,56,58,60,62,64,66,68,70,72,-1,-1,74,76,78,-1,-1,80,82,84,86,88,-1,90,92,-1,-1,-1,-1,-1,-1,-1,-1,-1,-1,-1,-1,-1,-1,-1,-1,-1,-1,-1,-1,-1,-1,-1,-1,-1,-1,-1,-1,-1,-1,-1,-1,-1,-1,-1,-1,-1,-1,-1],"split_conditions":[4.9228422E-2,-6.6701365E-1,3.6041486E-1,1.232073E1,8.690559E0,-1.1995715E0,5.9225255E-1,-2.5540337E-1,-6.990057E-1,7.2010164E0,-2.7746627E-1,-4.211381E-1,2.1469077E-1,-1.1995715E0,1.1373098E1,-5.860311E-1,1.423553E1,1.1579179E6,1.0771291E5,1.187814E0,-3.3767283E-1,-3.0065003E-1,-1.4491273E-1,2.6686347E0,-2.6584402E-1,8.690559E0,7.3975577E0,4.157635E5,4.59961E-1,8.648678E0,2.380182E-1,1.1058867E0,2.8416922E0,-2.9999512E-1,-5.9728795E-1,-1.1995715E0,5.5122294E0,4.7821423E-1,2.2138548E0,-9.52362E4,1.3062725E6,-2.6679122E-1,-2.2051847E-2,-5.860311E-1,-1.8730433E5,7.737501E5,6.796308E0,1.5770658E0,5.843016E-1,3.2976514E-1,7.760254E-1,1.6848605E5,3.334059E-1,7.6383865E-1,7.69487E5,3.0330912E4,-5.1486902E4,-8.719113E4,-4.3502397E5,-3.730627E3,8.6264856E5,-1.10452516E5,6.4832887E4,3.9460394E5,9.82328E5,1.7102717E5,7.811896E4,-1.0525547E4,2.6328544E5,1.0580389E6,4.0001703E5,2.1127197E5,-3.1709212E5,1.9158155E5,5.9667256E5,2.13673E4,9.67452E4,1.14544375E5,-9.932826E3,4.5034128E5,-1.6326351E4,1.14820625E5,1.5935166E5,3.571818E5,9.21599E4,1.3681234E5,1.545491E5,1.23214914E5,5.2210166E5,1.9168223E5,-1.0491495E5,2.4194623E5,1.1120611E4],"split_indices":[8,22,8,210,392,10,8,427,1,327,8,3,8,10,8,2,153,0,0,28,4,8,8,256,3,180,98,0,8,8,1,0,407,8,23,10,170,5,6,0,0,8,8,2,0,0,335,5,9,8,20,0,11,8,0,0,0,0,0,0,0,0,0,0,0,0,0,0,0,0,0,0,0,0,0,0,0,0,0,0,0,0,0,0,0,0,0,0,0,0,0,0,0],"split_type":[0,0,0,0,0,0,0,0,0,0,0,0,0,0,0,0,0,0,0,0,0,0,0,0,0,0,0,0,0,0,0,0,0,0,0,0,0,0,0,0,0,0,0,0,0,0,0,0,0,0,0,0,0,0,0,0,0,0,0,0,0,0,0,0,0,0,0,0,0,0,0,0,0,0,0,0,0,0,0,0,0,0,0,0,0,0,0,0,0,0,0,0,0],"sum_hessian":[1.2204E4,7.713E3,4.491E3,1.769E3,5.944E3,3.432E3,1.059E3,1.765E3,4E0,5.92E3,2.4E1,3.6E1,3.396E3,8.45E2,2.14E2,7.19E2,1.046E3,3E0,1E0,5.872E3,4.8E1,1E1,1.4E1,1.3E1,2.3E1,2.265E3,1.131E3,3E0,8.42E2,2.1E2,4E0,2.18E2,5.01E2,1.04E3,6E0,4.968E3,9.04E2,1.6E1,3.2E1,1E0,9E0,7E0,7E0,1E1,3E0,4E0,1.9E1,2.259E3,6E0,1.118E3,1.3E1,4.07E2,4.35E2,2.09E2,1E0,2E0,2E0,1.86E2,3.2E1,5E2,1E0,8.8E1,9.52E2,4E0,2E0,9.14E2,4.054E3,8.42E2,6.2E1,9E0,7E0,3.1E1,1E0,4E0,3E0,2E0,5E0,8E0,2E0,1.4E1,5E0,2.183E3,7.6E1,4E0,2E0,7.87E2,3.31E2,1E1,3E0,4.34E2,1E0,1.99E2,1E1],"tree_param":{"num_deleted":"0","num_feature":"446","num_nodes":"93","size_leaf_vector":"0"}},{"base_weights":[2.2856111E5,1.555694E5,3.2506666E5,1.0875108E5,3.5062875E5,2.9356553E5,4.4989934E5,1.03396586E5,2.2404835E6,2.8809688E5,1.3228778E6,8.307739E5,2.880686E5,4.3204284E5,6.221697E5,8.974353E4,8.1627156E5,-8.522195E5,2.8269522E6,2.618082E5,2.323894E6,7.0990406E5,2.4577958E6,1.8475098E6,6.099982E5,2.7417256E5,3.5371E5,1.0740555E6,4.2891122E5,2.426543E5,6.832608E5,8.1487125E4,1.3043574E6,4.7932978E5,1.448762E6,1.3880489E6,4.0345142E6,1.3431764E5,6.722531E5,9.199876E5,4.510407E6,3.22903E5,1.7925568E6,4.4431125E6,9.118195E5,6.29889E5,2.603253E6,3.6118588E5,1.4356931E6,2.68743E5,4.1584047E5,3.4721778E5,7.818829E5,4.000145E5,4.672141E5,4.4459166E5,-2.5013875E5,2.180213E6,6.384173E5,1.4551726E4,2.3043056E5,2.891473E6,6.9094606E5,7.707425E5,1.0919147E5,2.1538675E6,4.3276325E5,4.1537534E5,1.6940432E6,4.410721E6,1.0767405E6,-2.8665266E5,3.1292003E5,2.0135273E5,1.015301E6,2.9547956E5,1.6103014E6,1.7240347E5,3.1714422E6,3.0361052E6,-1.0530516E6,5.4247465E6,-3.1003766E5,4.49812E4,1.8813899E6,8.695692E5,-4.457575E4,-1.7718666E4,8.994438E5,2.6718E6,8.774207E5,2.4981725E5,2.8849897E5,2.2019378E6,3.0728147E5,3.482064E5,8.46855E4,2.9289325E5,1.8252276E6,1.7908675E5,4.0089397E5,4.6983566E5,-2.97259E5,7.381739E5,1.7137697E5,-3.2723175E5,2.9116625E4,6.724927E5,-1.9417562E5],"categories":[],"categories_nodes":[],"categories_segments":[],"categories_sizes":[],"default_left":[true,true,true,true,true,true,true,true,true,true,true,true,true,true,true,true,true,false,true,true,true,true,true,true,true,true,true,false,true,true,true,true,true,true,true,true,true,true,true,true,false,true,true,true,true,true,false,true,true,true,true,true,true,true,true,true,true,false,true,false,false,false,false,false,false,false,false,false,false,false,false,false,false,false,false,false,false,false,false,false,false,false,false,false,false,false,false,false,false,false,false,false,false,false,false,false,false,false,false,false,false,false,false,false,false,false,false,false,false],"id":10,"left_children":[1,3,5,7,9,11,13,15,17,19,21,23,25,27,29,31,33,-1,35,37,39,41,43,45,47,49,51,-1,53,55,57,59,61,63,65,67,69,71,73,75,-1,77,79,81,83,85,-1,87,89,91,93,95,97,99,101,103,105,-1,107,-1,-1,-1,-1,-1,-1,-1,-1,-1,-1,-1,-1,-1,-1,-1,-1,-1,-1,-1,-1,-1,-1,-1,-1,-1,-1,-1,-1,-1,-1,-1,-1,-1,-1,-1,-1,-1,-1,-1,-1,-1,-1,-1,-1,-1,-1,-1,-1,-1,-1],"loss_changes":[8.59227E13,6.344086E13,2.0532494E13,6.3768516E13,8.1390234E13,1.2160361E13,2.982687E12,5.4372705E13,2.7802015E13,6.709239E13,5.4604855E13,8.3007856E12,3.6957522E12,1.4714793E12,2.0831472E12,5.4949338E13,2.1682375E13,0E0,1.5250674E13,6.5319515E13,4.4965028E13,2.2046514E13,8.188776E13,4.8017E12,6.8774003E12,2.5311954E12,1.7383041E12,0E0,8.7343864E11,1.6039097E12,4.1797833E12,5.4370784E13,3.4023674E13,7.466252E12,2.4857794E13,1.3797645E12,1.9272072E12,7.189263E13,4.761182E13,4.26636E12,0E0,1.7030088E13,5.2738306E13,5.7672116E13,1.4203206E13,6.8538506E11,0E0,5.9304397E12,3.176381E12,1.1662682E12,2.3560504E13,1.5582678E11,4.567251E12,3.5651584E10,9.5333174E11,7.558146E11,1.1717106E11,0E0,2.4570002E12,0E0,0E0,0E0,0E0,0E0,0E0,0E0,0E0,0E0,0E0,0E0,0E0,0E0,0E0,0E0,0E0,0E0,0E0,0E0,0E0,0E0,0E0,0E0,0E0,0E0,0E0,0E0,0E0,0E0,0E0,0E0,0E0,0E0,0E0,0E0,0E0,0E0,0E0,0E0,0E0,0E0,0E0,0E0,0E0,0E0,0E0,0E0,0E0,0E0,0E0],"parents":[2147483647,0,0,1,1,2,2,3,3,4,4,5,5,6,6,7,7,8,8,9,9,10,10,11,11,12,12,13,13,14,14,15,15,16,16,18,18,19,19,20,20,21,21,22,22,23,23,24,24,25,25,26,26,28,28,29,29,30,30,31,31,32,32,33,33,34,34,35,35,36,36,37,37,38,38,39,39,41,41,42,42,43,43,44,44,45,45,47,47,48,48,49,49,50,50,51,51,52,52,53,53,54,54,55,55,56,56,58,58],"right_children":[2,4,6,8,10,12,14,16,18,20,22,24,26,28,30,32,34,-1,36,38,40,42,44,46,48,50,52,-1,54,56,58,60,62,64,66,68,70,72,74,76,-1,78,80,82,84,86,-1,88,90,92,94,96,98,100,102,104,106,-1,108,-1,-1,-1,-1,-1,-1,-1,-1,-1,-1,-1,-1,-1,-1,-1,-1,-1,-1,-1,-1,-1,-1,-1,-1,-1,-1,-1,-1,-1,-1,-1,-1,-1,-1,-1,-1,-1,-1,-1,-1,-1,-1,-1,-1,-1,-1,-1,-1,-1,-1],"split_conditions":[1.2634426E-2,3.8532432E-2,3.6513022E-1,6.3191414E0,1.9972782E0,-1.1995715E0,6.446191E-1,5.269367E0,-2.9785764E-1,2.8416922E0,5.843016E-1,5.786012E-2,2.7134728E-1,-1.1995715E0,3.770736E-1,5.7907457E0,8.8335216E-1,-2.5566586E5,6.030072E-1,6.030072E-1,-2.3948154E-1,-2.5399303E-1,-2.743227E-1,-7.037734E-1,2.3000994E0,2.8416922E0,6.3191414E0,3.2221666E5,4.6781993E-1,5.843016E-1,4.4540298E-1,1.8965381E-1,-1.4667076E-1,-2.9685158E-1,-2.8663498E-1,-2.5978374E-1,1.9972782E0,-2.782312E-1,3.334059E-1,-2.4814469E-1,1.3531221E6,6.54501E0,-1.897085E-1,6.1540136E0,-2.6174843E-1,-5.860311E-1,7.8097594E5,4.2469862E-1,-1.4667076E-1,1.2202805E-1,2.9031036E-2,3.334059E-1,7.760254E-1,-9.5534986E-1,3.334059E-1,2.3044248E0,1.1058867E0,6.5406394E5,7.6383865E-1,4.365518E3,6.912917E4,8.6744194E5,2.0728383E5,2.3122277E5,3.2757441E4,6.4616025E5,1.2982898E5,1.2461261E5,5.08213E5,1.3232164E6,3.2302216E5,-8.59958E4,9.3876016E4,6.0405824E4,3.045903E5,8.8643875E4,4.8309044E5,5.1721043E4,9.514327E5,9.108316E5,-3.159155E5,1.627424E6,-9.30113E4,1.349436E4,5.64417E5,2.6087077E5,-1.3372726E4,-5.3156E3,2.6983316E5,8.0154006E5,2.6322622E5,7.494518E4,8.6549695E4,6.605814E5,9.2184445E4,1.0446193E5,2.540565E4,8.786798E4,5.475683E5,5.3726027E4,1.20268195E5,1.409507E5,-8.91777E4,2.2145217E5,5.1413094E4,-9.816953E4,8.734988E3,2.0174781E5,-5.825269E4],"split_indices":[8,3,8,401,7,10,8,405,8,407,9,8,8,10,3,215,4,0,24,24,8,8,8,3,310,407,401,0,8,9,3,104,5,8,8,8,7,8,11,8,0,374,8,313,8,2,0,2,5,8,8,11,20,3,11,8,0,0,8,0,0,0,0,0,0,0,0,0,0,0,0,0,0,0,0,0,0,0,0,0,0,0,0,0,0,0,0,0,0,0,0,0,0,0,0,0,0,0,0,0,0,0,0,0,0,0,0,0,0],"split_type":[0,0,0,0,0,0,0,0,0,0,0,0,0,0,0,0,0,0,0,0,0,0,0,0,0,0,0,0,0,0,0,0,0,0,0,0,0,0,0,0,0,0,0,0,0,0,0,0,0,0,0,0,0,0,0,0,0,0,0,0,0,0,0,0,0,0,0,0,0,0,0,0,0,0,0,0,0,0,0,0,0,0,0,0,0,0,0,0,0,0,0,0,0,0,0,0,0,0,0,0,0,0,0,0,0,0,0,0,0],"sum_hessian":[1.2204E4,6.95E3,5.254E3,5.606E3,1.344E3,4.198E3,1.056E3,5.593E3,1.3E1,1.264E3,8E1,4.1E1,4.157E3,9.6E2,9.6E1,5.489E3,1.04E2,2E0,1.1E1,1.249E3,1.5E1,5.3E1,2.7E1,6E0,3.5E1,3.435E3,7.22E2,3E0,9.57E2,1.4E1,8.2E1,5.453E3,3.6E1,6.9E1,3.5E1,6E0,5E0,9.54E2,2.95E2,1E1,5E0,4E1,1.3E1,1.1E1,1.6E1,3E0,3E0,2.8E1,7E0,3.311E3,1.24E2,7.13E2,9E0,5.52E2,4.05E2,1E1,4E0,1E0,8.1E1,3.763E3,1.69E3,9E0,2.7E1,3.8E1,3.1E1,2E1,1.5E1,2E0,4E0,4E0,1E0,2.84E2,6.7E2,1.25E2,1.7E2,6E0,4E0,3.9E1,1E0,9E0,4E0,9E0,2E0,9E0,7E0,2E0,1E0,1.7E1,1.1E1,1E0,6E0,1.698E3,1.613E3,6E0,1.18E2,7.1E2,3E0,7E0,2E0,3E0,5.49E2,4.04E2,1E0,4E0,6E0,3E0,1E0,7.8E1,3E0],"tree_param":{"num_deleted":"0","num_feature":"446","num_nodes":"109","size_leaf_vector":"0"}},{"base_weights":[1.6128619E5,1.6938183E5,-4.0942838E5,2.4291839E5,1.0537093E5,-9.000564E5,-7.4516787E3,2.1409417E5,6.284939E5,9.881796E4,1.8519884E6,-4.9134422E5,-1.7821565E6,2.9901578E4,-8.647137E5,1.2660891E6,2.030413E5,1.5909305E6,4.8511056E5,2.9500926E4,1.7712652E5,3.1241262E6,-6.1536656E5,-7.2736806E5,-2.6279372E5,-3.716191E6,-1.077611E6,1.03364875E5,-9.269193E4,-1.169451E6,2.4749125E4,1.6287118E6,-2.8523462E3,-7.804288E5,2.3143612E5,-1.0590616E6,1.9089088E6,6.5863956E5,-1.4755628E5,2.7578746E4,3.284379E6,1.6973545E5,1.8685618E6,5.1912634E5,3.4591888E6,-1.1742108E6,-1.4024267E5,-7.4331206E5,-1.6438338E5,9.870419E4,-3.0830134E5,-4.008807E6,-1.1265555E6,-7.799939E5,-1.9986768E6,-4.1437484E4,1.5038011E5,-3.0136538E5,-4.7867508E4,2.2633615E6,-1.465257E5,1.2151651E6,-3.047183E6,-1.5633334E5,-1.1277045E6,2.2545194E5,1.5793278E6,-2.0238085E6,-7.0736125E4,2.2854055E6,1.4898728E5,6.096465E5,3.1039455E6,-7.122479E5,9.877292E5,2.1594872E5,-5.561508E3,1.5451533E5,6.48979E5,3.0347652E6,2.1966667E3,1.368227E6,-5.895375E5,1.588045E5,3.7008488E6,-1.951897E5,6.724625E4,-5.8967375E4,1.7091717E5,-3.288996E5,1.033275E5,-2.4590642E5,-8.387274E5,1.0528069E5,-8.6890414E4,-6.7291113E3,1.8548019E5,-3.2852906E5,-8.27735E4,4.8278883E4,-1.14647266E5],"categories":[],"categories_nodes":[],"categories_segments":[],"categories_sizes":[],"default_left":[true,true,true,true,true,true,true,true,true,true,true,true,true,true,true,true,true,true,true,true,true,true,true,true,true,true,true,true,true,false,false,true,true,true,true,true,true,true,true,true,false,true,true,true,true,false,true,false,false,true,true,false,false,true,false,true,true,true,true,false,false,false,false,false,false,false,false,false,false,false,false,false,false,false,false,false,false,false,false,false,false,false,false,false,false,false,false,false,false,false,false,false,false,false,false,false,false,false,false,false,false],"id":11,"left_children":[1,3,5,7,9,11,13,15,17,19,21,23,25,27,29,31,33,35,37,39,41,43,45,47,49,51,53,55,57,-1,-1,59,61,63,65,67,69,71,73,75,-1,77,79,81,83,-1,85,-1,-1,87,89,-1,-1,91,-1,93,95,97,99,-1,-1,-1,-1,-1,-1,-1,-1,-1,-1,-1,-1,-1,-1,-1,-1,-1,-1,-1,-1,-1,-1,-1,-1,-1,-1,-1,-1,-1,-1,-1,-1,-1,-1,-1,-1,-1,-1,-1,-1,-1,-1],"loss_changes":[5.646003E13,5.662485E13,3.371809E13,6.210335E13,7.348042E13,2.6884776E13,3.0679016E12,6.034585E13,5.29092E13,3.4805287E13,7.725407E13,2.721794E12,2.8698158E13,8.381445E11,1.1131528E12,2.4852585E13,1.4424815E14,4.4153656E13,3.7424432E13,2.1200162E13,3.7324843E13,1.2169639E13,2.2250072E12,1.11194145E11,5.075071E11,3.0475813E10,3.64942E12,4.0109054E11,3.129527E11,0E0,0E0,4.7651093E13,5.1907452E13,3.1250014E13,4.009513E13,5.577747E12,2.947673E13,3.0095096E13,4.8143882E13,2.1238622E13,0E0,2.1774872E13,2.828863E13,3.630723E12,1.0578286E13,0E0,8.1531175E10,0E0,0E0,5.562227E10,2.5443408E11,0E0,0E0,2.956523E11,0E0,1.0917945E11,2.438881E11,8.4330414E9,1.9815403E11,0E0,0E0,0E0,0E0,0E0,0E0,0E0,0E0,0E0,0E0,0E0,0E0,0E0,0E0,0E0,0E0,0E0,0E0,0E0,0E0,0E0,0E0,0E0,0E0,0E0,0E0,0E0,0E0,0E0,0E0,0E0,0E0,0E0,0E0,0E0,0E0,0E0,0E0,0E0,0E0,0E0,0E0],"parents":[2147483647,0,0,1,1,2,2,3,3,4,4,5,5,6,6,7,7,8,8,9,9,10,10,11,11,12,12,13,13,14,14,15,15,16,16,17,17,18,18,19,19,20,20,21,21,22,22,23,23,24,24,25,25,26,26,27,27,28,28,31,31,32,32,33,33,34,34,35,35,36,36,37,37,38,38,39,39,41,41,42,42,43,43,44,44,46,46,49,49,50,50,53,53,55,55,56,56,57,57,58,58],"right_children":[2,4,6,8,10,12,14,16,18,20,22,24,26,28,30,32,34,36,38,40,42,44,46,48,50,52,54,56,58,-1,-1,60,62,64,66,68,70,72,74,76,-1,78,80,82,84,-1,86,-1,-1,88,90,-1,-1,92,-1,94,96,98,100,-1,-1,-1,-1,-1,-1,-1,-1,-1,-1,-1,-1,-1,-1,-1,-1,-1,-1,-1,-1,-1,-1,-1,-1,-1,-1,-1,-1,-1,-1,-1,-1,-1,-1,-1,-1,-1,-1,-1,-1,-1,-1],"split_conditions":[4.1473594E0,-3.3767283E-1,-2.054263E-1,6.5723133E-1,8.582859E0,-2.8401536E-1,3.334059E-1,-3.2330334E-1,-9.224742E-1,8.8335216E-1,-4.4909108E-1,-3.0628225E-1,-2.3162265E-1,6.030072E-1,1.1058867E0,5.843016E-1,-3.0421275E-1,-1.8577049E0,8.783939E-1,2.4687044E1,4.0073485E0,8.8335216E-1,7.0500505E-1,2.2138548E0,4.2469862E-1,1.0976382E0,3.334059E-1,-1.7530051E-1,-1.897085E-1,-3.508353E5,7.424738E3,4.7821423E-1,9.407118E-1,-6.2612635E-1,6.2766476E0,2.380182E-1,2.5954938E0,7.763442E0,5.7167728E-2,-9.224742E-1,9.8531375E5,2.5954938E0,-2.858491E-1,-9.4603217E-1,-5.860311E-1,-3.5226325E5,-1.652149E-1,-2.2299362E5,-4.9315016E4,3.522265E-1,-3.3767283E-1,-1.2026421E6,-3.3796666E5,-6.6701365E-1,-5.9960306E5,-5.9728795E-1,-1.8819696E-1,1.1058867E0,-1.4517468E-1,6.790085E5,-4.395771E4,3.6454956E5,-9.1415494E5,-4.6900004E4,-3.3831138E5,6.7635586E4,4.7379834E5,-6.0714256E5,-2.1220838E4,6.856217E5,4.4696188E4,1.8289395E5,9.311837E5,-2.1367438E5,2.9631878E5,6.4784617E4,-1.6684524E3,4.63546E4,1.946937E5,9.104296E5,6.5900006E2,4.1046812E5,-1.7686125E5,4.764135E4,1.1102546E6,-5.8556914E4,2.0173875E4,-1.7690213E4,5.1275152E4,-9.866988E4,3.0998252E4,-7.377193E4,-2.5161822E5,3.1584207E4,-2.6067125E4,-2.0187335E3,5.564406E4,-9.855873E4,-2.483205E4,1.4483665E4,-3.439418E4],"split_indices":[50,4,8,7,385,8,11,8,5,4,3,8,8,24,0,9,8,15,423,37,7,4,125,6,2,3,11,8,8,0,0,5,26,3,169,1,105,257,3,5,0,105,8,3,2,0,8,0,0,3,4,0,0,22,0,23,3,0,8,0,0,0,0,0,0,0,0,0,0,0,0,0,0,0,0,0,0,0,0,0,0,0,0,0,0,0,0,0,0,0,0,0,0,0,0,0,0,0,0,0,0],"split_type":[0,0,0,0,0,0,0,0,0,0,0,0,0,0,0,0,0,0,0,0,0,0,0,0,0,0,0,0,0,0,0,0,0,0,0,0,0,0,0,0,0,0,0,0,0,0,0,0,0,0,0,0,0,0,0,0,0,0,0,0,0,0,0,0,0,0,0,0,0,0,0,0,0,0,0,0,0,0,0,0,0,0,0,0,0,0,0,0,0,0,0,0,0,0,0,0,0,0,0,0,0],"sum_hessian":[1.2204E4,1.2034E4,1.7E2,5.599E3,6.435E3,7.6E1,9.4E1,5.211E3,3.88E2,6.412E3,2.3E1,5.3E1,2.3E1,9.1E1,3E0,5.3E1,5.158E3,4.9E1,3.39E2,3.402E3,3.01E3,1.5E1,8E0,2.5E1,2.8E1,5E0,1.8E1,5.7E1,3.4E1,2E0,1E0,4.1E1,1.2E1,1.44E2,5.014E3,5E0,4.4E1,2.66E2,7.3E1,3.401E3,1E0,2.998E3,1.2E1,2E0,1.3E1,3E0,5E0,2.4E1,1E0,3E0,2.5E1,4E0,1E0,1.5E1,3E0,1.4E1,4.3E1,5E0,2.9E1,3E1,1.1E1,9E0,3E0,5.2E1,9.2E1,4.993E3,2.1E1,2E0,3E0,3.6E1,8E0,2.62E2,4E0,4.9E1,2.4E1,5.08E2,2.893E3,2.907E3,9.1E1,7E0,5E0,1E0,1E0,1E0,1.2E1,4E0,1E0,1E0,2E0,2.4E1,1E0,2E0,1.3E1,3E0,1.1E1,8E0,3.5E1,4E0,1E0,1.2E1,1.7E1],"tree_param":{"num_deleted":"0","num_feature":"446","num_nodes":"101","size_leaf_vector":"0"}},{"base_weights":[1.1302659E5,1.17159625E5,-7.545787E5,7.10327E4,1.8467952E5,-2.338656E5,-1.2327821E6,5.29989E4,3.743151E5,5.5761075E5,1.5385475E5,-1.932954E5,-4.391053E5,-8.303875E3,-1.3685276E6,-1.4898377E4,1.639709E5,3.1024397E5,1.5311279E6,4.3202956E5,1.3677595E6,1.5804722E5,-2.2487958E6,1.15021914E5,-2.2378111E5,-1.3651917E5,1.88171E5,-1.6675059E6,-7.820589E5,-1.5811648E5,1.3272725E5,1.5031706E5,1.1552366E6,1.3048925E5,5.368132E5,3.0073312E6,8.818561E5,2.9170548E6,3.9222412E5,3.3072052E6,8.00218E5,-5.6924344E5,1.7119683E5,-2.5749408E5,-7.97265E4,-9.4004656E5,-2.0827226E6,-2.933902E5,-1.0193852E6,-1.7609016E5,9.314973E5,1.0485296E5,2.2895853E5,1.3652356E5,1.0596364E6,3.152703E6,3.4254825E5,9.9320344E5,5.179907E4,4.076912E5,1.5415362E6,-8.3034625E5,3.940936E6,1.444316E6,-4.763757E4,3.5979228E5,2.888714E6,3.5966578E6,2.063405E5,-6.5609945E4,1.5116049E6,6.408923E5,-8.316732E5,4.401442E5,1.362006E5,-5.203575E4,-2.7860472E5,-1.031539E5,1.870525E4,-1.1691078E6,-1.6857533E5,-3.1237075E5,-2.2447205E6,-3.8218816E5,-1.067955E5],"categories":[],"categories_nodes":[],"categories_segments":[],"categories_sizes":[],"default_left":[true,true,true,true,true,true,true,true,true,true,true,true,false,true,true,true,true,true,true,true,true,true,false,false,true,false,false,true,true,true,true,true,true,true,true,true,true,false,true,true,true,true,true,true,true,true,true,true,false,false,false,false,false,false,false,false,false,false,false,false,false,false,false,false,false,false,false,false,false,false,false,false,false,false,false,false,false,false,false,false,false,false,false,false,false],"id":12,"left_children":[1,3,5,7,9,11,13,15,17,19,21,23,-1,25,27,29,31,33,35,37,39,41,-1,-1,43,-1,-1,45,47,49,51,53,55,57,59,61,63,-1,65,67,69,71,73,75,77,79,81,83,-1,-1,-1,-1,-1,-1,-1,-1,-1,-1,-1,-1,-1,-1,-1,-1,-1,-1,-1,-1,-1,-1,-1,-1,-1,-1,-1,-1,-1,-1,-1,-1,-1,-1,-1,-1,-1],"loss_changes":[4.385358E13,3.7821633E13,1.415409E13,3.9463296E13,5.6587134E13,1.5659473E11,4.975162E12,5.1351405E13,2.9542886E13,3.7663113E13,4.62381E13,2.7012065E11,0E0,1.26453285E11,3.430127E12,8.943331E13,3.4840338E13,1.5609803E13,1.7475568E13,3.1201889E13,5.2389315E13,4.3592693E13,0E0,0E0,9.602715E10,0E0,0E0,3.177051E12,9.766358E11,4.2211647E13,5.563388E12,3.187684E13,5.5736164E13,1.4612174E13,2.1425948E13,2.4769592E13,8.4336517E12,0E0,2.5112586E13,9.130941E12,2.4736726E13,2.6256637E13,4.199353E13,6.7912466E10,1.576552E10,1.2166302E12,2.1667481E12,4.203017E10,0E0,0E0,0E0,0E0,0E0,0E0,0E0,0E0,0E0,0E0,0E0,0E0,0E0,0E0,0E0,0E0,0E0,0E0,0E0,0E0,0E0,0E0,0E0,0E0,0E0,0E0,0E0,0E0,0E0,0E0,0E0,0E0,0E0,0E0,0E0,0E0,0E0],"parents":[2147483647,0,0,1,1,2,2,3,3,4,4,5,5,6,6,7,7,8,8,9,9,10,10,11,11,13,13,14,14,15,15,16,16,17,17,18,18,19,19,20,20,21,21,24,24,27,27,28,28,29,29,30,30,31,31,32,32,33,33,34,34,35,35,36,36,38,38,39,39,40,40,41,41,42,42,43,43,44,44,45,45,46,46,47,47],"right_children":[2,4,6,8,10,12,14,16,18,20,22,24,-1,26,28,30,32,34,36,38,40,42,-1,-1,44,-1,-1,46,48,50,52,54,56,58,60,62,64,-1,66,68,70,72,74,76,78,80,82,84,-1,-1,-1,-1,-1,-1,-1,-1,-1,-1,-1,-1,-1,-1,-1,-1,-1,-1,-1,-1,-1,-1,-1,-1,-1,-1,-1,-1,-1,-1,-1,-1,-1,-1,-1,-1,-1],"split_conditions":[7.2648115E0,1.8965381E-1,-2.978025E-1,2.5954938E0,-1.1995715E0,-5.3605574E-1,-9.0565574E-1,7.0500505E-1,6.5970886E-1,1.7519125E-1,1.1241686E1,-3.1209785E-1,-1.317316E5,-5.860311E-1,-2.2125228E-1,-8.1910506E-2,8.690559E0,-1.2792155E-2,-2.8140882E-1,-3.161059E-1,3.4912065E-1,-3.0573016E-1,-6.7463875E5,3.4506574E4,-3.0261475E-1,-4.0955754E4,5.64513E4,-2.922672E-1,-3.3767283E-1,7.2010164E0,2.5592053E-1,2.5108147E0,-2.7746627E-1,-3.0326968E-1,-2.570331E-1,-2.3049375E-1,9.407118E-1,8.7511644E5,1.232073E1,1.5770658E0,-2.4427548E-1,-3.1296232E-1,-2.119754E-1,-1.1853645E0,-2.9885036E-1,-7.503616E-1,-6.135186E-1,-1.8132566E-1,-3.0581556E5,-5.282705E4,2.7944922E5,3.1455889E4,6.868756E4,4.095707E4,3.1789094E5,9.4581094E5,1.0276448E5,2.9796103E5,1.5539722E4,1.2230736E5,4.624609E5,-2.4910389E5,1.1822809E6,4.332948E5,-1.4291271E4,1.0793769E5,8.6661425E5,1.0789974E6,6.1902152E4,-1.9682984E4,4.5348147E5,1.922677E5,-2.4950197E5,1.3204327E5,4.086018E4,-1.5610726E4,-8.358142E4,-3.094617E4,5.611575E3,-3.5073234E5,-5.05726E4,-9.371123E4,-6.734162E5,-1.1465645E5,-3.203865E4],"split_indices":[366,104,8,105,10,3,3,125,3,3,209,8,0,2,8,8,392,7,8,8,3,8,0,0,8,0,0,8,4,327,8,3,8,8,8,1,26,0,210,5,8,8,8,14,8,3,17,8,0,0,0,0,0,0,0,0,0,0,0,0,0,0,0,0,0,0,0,0,0,0,0,0,0,0,0,0,0,0,0,0,0,0,0,0,0],"split_type":[0,0,0,0,0,0,0,0,0,0,0,0,0,0,0,0,0,0,0,0,0,0,0,0,0,0,0,0,0,0,0,0,0,0,0,0,0,0,0,0,0,0,0,0,0,0,0,0,0,0,0,0,0,0,0,0,0,0,0,0,0,0,0,0,0,0,0,0,0,0,0,0,0,0,0,0,0,0,0,0,0,0,0,0,0],"sum_hessian":[1.2204E4,1.2147E4,5.7E1,7.218E3,4.929E3,2.8E1,2.9E1,6.814E3,4.04E2,3.75E2,4.554E3,2.5E1,3E0,3E0,2.6E1,4.228E3,2.586E3,3.84E2,2E1,3.26E2,4.9E1,4.547E3,7E0,2E0,2.3E1,2E0,1E0,1.6E1,1E1,2.146E3,2.082E3,2.552E3,3.4E1,2.15E2,1.69E2,5E0,1.5E1,4E0,3.22E2,1E1,3.9E1,8E1,4.467E3,1.8E1,5E0,7E0,9E0,4E0,6E0,2.112E3,3.4E1,1.616E3,4.66E2,2.515E3,3.7E1,9E0,2.5E1,1.7E1,1.98E2,1.51E2,1.8E1,1E0,4E0,9E0,6E0,3.19E2,3E0,9E0,1E0,1.8E1,2.1E1,1.4E1,6.6E1,5.13E2,3.954E3,2E0,1.6E1,4E0,1E0,5E0,2E0,1E0,8E0,2E0,2E0],"tree_param":{"num_deleted":"0","num_feature":"446","num_nodes":"85","size_leaf_vector":"0"}},{"base_weights":[7.953018E4,7.530011E4,6.481078E5,7.3836695E4,1.6790144E6,3.296933E5,1.4192168E6,7.016007E4,6.960622E5,6.887688E5,2.1464732E6,-2.1386889E5,4.5679925E5,-1.81298E5,1.7184602E6,2.0037516E4,1.22059336E5,1.1187889E6,-3.637056E5,2.721239E6,4.7303934E5,-2.3878745E5,4.2577E4,2.804296E5,9.28084E5,-2.4670025E5,-1.03272375E5,-9.76285E4,2.0103495E6,8.502598E4,-8.812512E4,1.0518604E5,2.0056078E5,4.835758E5,2.16317E6,8.619323E4,-8.672136E5,3.13237E5,3.2449305E6,-7.29076E4,-3.1261394E5,-1.19931586E5,4.364263E5,2.0743266E6,2.621543E5,3.8091E4,-1.5556533E5,2.4582648E6,1.2395252E6,4.998512E4,1.2683154E6,-9.6725984E4,2.741864E6,1.0637152E5,-8.733767E5,1.8904427E5,4.2131334E5,-2.670093E5,5.96312E5,3.1360182E6,7.3378094E5,-4.2872727E4,7.529594E5,-2.7993944E5,-1.6781401E6,-1.108985E5,3.9528E4,-4.98718E5,5.6975E3,4.9107944E5,-5.469305E5,3.1706092E6,2.8660166E5,-7.66003E5,6.14944E5,1.620093E6,3.5200422E6,3.46141E5,1.3079306E6],"categories":[],"categories_nodes":[],"categories_segments":[],"categories_sizes":[],"default_left":[true,true,true,true,true,true,true,true,true,false,true,true,true,true,true,true,true,true,true,true,false,true,false,true,true,false,false,true,true,true,true,true,true,true,true,true,true,false,false,true,false,true,true,true,true,false,false,true,true,false,false,false,false,false,false,false,false,false,false,false,false,false,false,false,false,false,false,false,false,false,false,false,false,false,false,false,false,false,false],"id":13,"left_children":[1,3,5,7,9,11,13,15,17,-1,19,21,23,25,27,29,31,33,35,37,-1,39,-1,41,43,-1,-1,45,47,49,51,53,55,57,59,61,63,-1,-1,65,-1,67,69,71,73,-1,-1,75,77,-1,-1,-1,-1,-1,-1,-1,-1,-1,-1,-1,-1,-1,-1,-1,-1,-1,-1,-1,-1,-1,-1,-1,-1,-1,-1,-1,-1,-1,-1],"loss_changes":[2.9305711E13,2.8311154E13,2.1629996E13,2.7645924E13,3.6134684E12,4.588545E12,1.2764089E13,3.1307095E13,3.2214348E13,0E0,5.445572E12,9.3240295E10,4.1451153E12,3.7945344E7,1.1858396E13,4.3055063E13,7.811128E12,3.2787583E13,4.83183E12,5.288816E12,0E0,1.2416398E11,0E0,2.550542E12,1.0142644E13,0E0,0E0,3.7378277E10,3.512931E12,1.5857586E14,5.6223727E13,5.7412766E12,2.57706E12,2.9516182E12,2.411984E13,1.06496315E12,4.2925844E12,0E0,0E0,2.5741244E10,0E0,5.7388053E11,1.8271484E12,8.890559E12,4.0982822E12,0E0,0E0,4.086674E12,9.728269E10,0E0,0E0,0E0,0E0,0E0,0E0,0E0,0E0,0E0,0E0,0E0,0E0,0E0,0E0,0E0,0E0,0E0,0E0,0E0,0E0,0E0,0E0,0E0,0E0,0E0,0E0,0E0,0E0,0E0,0E0],"parents":[2147483647,0,0,1,1,2,2,3,3,4,4,5,5,6,6,7,7,8,8,10,10,11,11,12,12,13,13,14,14,15,15,16,16,17,17,18,18,19,19,21,21,23,23,24,24,27,27,28,28,29,29,30,30,31,31,32,32,33,33,34,34,35,35,36,36,39,39,41,41,42,42,43,43,44,44,47,47,48,48],"right_children":[2,4,6,8,10,12,14,16,18,-1,20,22,24,26,28,30,32,34,36,38,-1,40,-1,42,44,-1,-1,46,48,50,52,54,56,58,60,62,64,-1,-1,66,-1,68,70,72,74,-1,-1,76,78,-1,-1,-1,-1,-1,-1,-1,-1,-1,-1,-1,-1,-1,-1,-1,-1,-1,-1,-1,-1,-1,-1,-1,-1,-1,-1,-1,-1,-1,-1],"split_conditions":[5.7907457E0,1.7445635E1,5.843016E-1,6.54501E0,-1.0889027E0,-2.742074E-1,-2.659975E-1,-3.4848765E-2,-2.1684791E-1,2.0663066E5,6.030072E-1,1.1058867E0,4.2469862E-1,4.2469862E-1,3.334059E-1,-2.1877334E-1,3.8215783E-1,-8.062675E-1,3.334059E-1,-5.860311E-1,1.4191181E5,-2.9731804E-1,1.2773101E4,3.334059E-1,4.7821423E-1,-7.401008E4,-3.0981713E4,-2.6584402E-1,-4.9499166E-3,-2.3935057E-1,8.582859E0,1.7445635E1,6.650784E-1,-1.4667076E-1,-2.85183E-1,9.9224305E-1,-6.820322E-1,9.39711E4,9.734792E5,2.52945E0,-9.378419E4,-5.6107104E-2,2.580578E0,3.2116768E-1,-2.1304402E-1,1.1427301E4,-4.66696E4,-1.3045235E-1,-5.860311E-1,1.4995537E4,3.8049462E5,-2.9017797E4,8.2255925E5,3.1911459E4,-2.6201302E5,5.671328E4,1.2639401E5,-8.01028E4,1.7889361E5,9.408055E5,2.201343E5,-1.2861818E4,2.2588783E5,-8.3981836E4,-5.0344206E5,-3.326955E4,1.18584E4,-1.496154E5,1.7092501E3,1.4732384E5,-1.6407916E5,9.511828E5,8.59805E4,-2.298009E5,1.844832E5,4.860279E5,1.0560128E6,1.03842305E5,3.923792E5],"split_indices":[215,421,9,374,3,8,8,8,8,0,24,0,2,2,11,8,8,3,11,2,0,19,0,11,5,0,0,3,3,8,161,347,8,5,8,7,3,0,0,3,0,8,1,3,3,0,0,8,2,0,0,0,0,0,0,0,0,0,0,0,0,0,0,0,0,0,0,0,0,0,0,0,0,0,0,0,0,0,0],"split_type":[0,0,0,0,0,0,0,0,0,0,0,0,0,0,0,0,0,0,0,0,0,0,0,0,0,0,0,0,0,0,0,0,0,0,0,0,0,0,0,0,0,0,0,0,0,0,0,0,0,0,0,0,0,0,0,0,0,0,0,0,0,0,0,0,0,0,0,0,0,0,0,0,0,0,0,0,0,0,0],"sum_hessian":[1.2204E4,1.2115E4,8.9E1,1.2105E4,1E1,6.4E1,2.5E1,1.2035E4,7E1,4E0,6E0,1.2E1,5.2E1,4E0,2.1E1,6.123E3,5.912E3,5E1,2E1,4E0,2E0,1.1E1,1E0,3.9E1,1.3E1,1E0,3E0,3E0,1.8E1,3.825E3,2.298E3,4.868E3,1.044E3,3.2E1,1.8E1,1.1E1,9E0,1E0,3E0,4E0,7E0,1.1E1,2.8E1,4E0,9E0,1E0,2E0,1E1,8E0,3.716E3,1.09E2,2.292E3,6E0,4.863E3,5E0,9.94E2,5E1,4E0,2.8E1,1E1,8E0,1E1,1E0,6E0,3E0,3E0,1E0,2E0,9E0,2.7E1,1E0,2E0,2E0,2E0,7E0,7E0,3E0,1E0,7E0],"tree_param":{"num_deleted":"0","num_feature":"446","num_nodes":"79","size_leaf_vector":"0"}},{"base_weights":[5.616824E4,5.257674E4,6.211701E5,5.580987E4,-5.483511E5,1.9140182E6,5.241097E5,5.516656E4,3.9083658E6,-1.0876482E6,-1.6093127E5,8.9704575E5,2.990954E6,2.1009517E5,7.383036E5,5.8189766E4,-5.71641E5,-8.419582E5,-2.0002932E6,-2.72047E5,-8.782458E4,1.6345979E6,5.548817E4,-7.132994E4,8.977138E5,5.7062215E4,1.7422446E6,-1.858309E5,-9.2553606E5,-1.13756E5,-8.6988756E5,-3.563662E6,-7.185355E5,-7.654E3,-2.903855E5,6.4102375E4,-1.5046853E5,-6.835998E4,2.9763566E5,-3.145905E5,1.375445E5,6.201405E5,1.2059216E6,-3.4718078E5,6.1690953E4,-3.2173475E5,2.0830609E6,-2.5184453E5,-1.0742857E5,8.821125E3,-1.0296802E6,-6.09485E4,-3.0334616E5,-5.6131168E4,1.13535414E5,-4.06681E5,-1.114748E5,2.6867116E5,-1.20734055E5,-1.1237425E5,3.5567834E5,1.90179E5,3.9061832E4,8.318245E5,-4.7706832E4,6.8804575E5,1.6377918E6],"categories":[],"categories_nodes":[],"categories_segments":[],"categories_sizes":[],"default_left":[true,true,true,true,true,true,true,true,false,true,true,false,false,true,true,true,true,true,true,true,true,false,true,true,true,true,true,true,true,false,false,false,false,false,true,true,true,true,true,false,true,true,true,false,false,false,false,false,false,false,false,false,false,false,false,false,false,false,false,false,false,false,false,false,false,false,false],"id":14,"left_children":[1,3,5,7,9,11,13,15,-1,17,19,-1,-1,21,23,25,27,29,31,33,35,-1,37,39,41,43,45,47,49,-1,-1,-1,-1,-1,51,53,55,57,59,-1,61,63,65,-1,-1,-1,-1,-1,-1,-1,-1,-1,-1,-1,-1,-1,-1,-1,-1,-1,-1,-1,-1,-1,-1,-1,-1],"loss_changes":[2.4733781E13,2.359578E13,8.6591427E12,2.9686256E13,1.34057E13,2.7930458E12,4.7548664E12,2.289418E13,0E0,4.3699887E12,2.9291643E11,0E0,0E0,6.7366803E12,5.613778E12,2.2700194E13,7.7471123E12,3.6882403E11,7.4586805E12,7.050599E10,2.4757802E11,0E0,8.900423E11,4.497575E11,2.331966E12,2.2475044E13,6.297697E12,1.2303781E11,2.9283183E12,0E0,0E0,0E0,0E0,0E0,2.3142597E10,5.3920956E10,1.3449757E11,3.8547168E11,2.7794997E11,0E0,1.848918E10,3.0085077E12,2.4516063E12,0E0,0E0,0E0,0E0,0E0,0E0,0E0,0E0,0E0,0E0,0E0,0E0,0E0,0E0,0E0,0E0,0E0,0E0,0E0,0E0,0E0,0E0,0E0,0E0],"parents":[2147483647,0,0,1,1,2,2,3,3,4,4,5,5,6,6,7,7,9,9,10,10,13,13,14,14,15,15,16,16,17,17,18,18,19,19,20,20,22,22,23,23,24,24,25,25,26,26,27,27,28,28,34,34,35,35,36,36,37,37,38,38,40,40,41,41,42,42],"right_children":[2,4,6,8,10,12,14,16,-1,18,20,-1,-1,22,24,26,28,30,32,34,36,-1,38,40,42,44,46,48,50,-1,-1,-1,-1,-1,52,54,56,58,60,-1,62,64,66,-1,-1,-1,-1,-1,-1,-1,-1,-1,-1,-1,-1,-1,-1,-1,-1,-1,-1,-1,-1,-1,-1,-1,-1],"split_conditions":[6.2766476E0,6.850051E0,-1.8577049E0,3.1878677E1,-1.7922994E-1,-1.8819696E-1,-2.6305827E-1,7.2648115E0,1.1725098E6,4.7821423E-1,-1.6351214E-1,2.6911375E5,8.9728625E5,-2.9541075E-1,3.334059E-1,2.0859226E1,-2.978025E-1,-9.7060823E-1,-2.2638339E-1,-1.1385969E0,-6.727146E-1,4.9037938E5,-2.829675E-1,-9.7060823E-1,-2.3686191E-1,-1.2224557E0,-5.860311E-1,-2.9731804E-1,-9.0565574E-1,-3.41268E4,-2.6096628E5,-1.0690986E6,-2.1556066E5,-2.2962002E3,-6.990057E-1,-1.4386487E-1,-6.990057E-1,-1.1354909E0,-5.9728795E-1,-9.437716E4,4.0819395E-2,-3.2902855E-2,-1.1995715E0,-1.0415424E5,1.8507287E4,-9.652043E4,6.249183E5,-7.555336E4,-3.2228572E4,2.6463376E3,-3.0890406E5,-1.828455E4,-9.100385E4,-1.6839352E4,3.4060625E4,-1.22004305E5,-3.344244E4,8.060135E4,-3.622022E4,-3.3712277E4,1.0670351E5,5.7053703E4,1.171855E4,2.4954736E5,-1.431205E4,2.0641373E5,4.9133753E5],"split_indices":[169,377,15,142,8,3,8,366,0,5,8,0,0,8,11,185,8,9,8,3,3,0,8,9,8,3,2,19,3,0,0,0,0,0,1,8,1,3,23,0,8,3,10,0,0,0,0,0,0,0,0,0,0,0,0,0,0,0,0,0,0,0,0,0,0,0,0],"split_type":[0,0,0,0,0,0,0,0,0,0,0,0,0,0,0,0,0,0,0,0,0,0,0,0,0,0,0,0,0,0,0,0,0,0,0,0,0,0,0,0,0,0,0,0,0,0,0,0,0,0,0,0,0,0,0,0,0,0,0,0,0,0,0,0,0,0,0],"sum_hessian":[1.2204E4,1.2128E4,7.6E1,1.2064E4,6.4E1,4E0,7.2E1,1.2063E4,1E0,2.6E1,3.8E1,3E0,1E0,3E1,4.2E1,1.2006E4,5.7E1,2.2E1,4E0,1.4E1,2.4E1,2E0,2.8E1,7E0,3.5E1,1.1999E4,7E0,2.8E1,2.9E1,1E0,2.1E1,1E0,3E0,1E0,1.3E1,7E0,1.7E1,1.9E1,9E0,3E0,4E0,2E1,1.5E1,1.35E2,1.1864E4,1E0,6E0,1.4E1,1.4E1,3E0,2.6E1,1E0,1.2E1,2E0,5E0,1E0,1.6E1,2E0,1.7E1,1E0,8E0,2E0,2E0,1.5E1,5E0,8E0,7E0],"tree_param":{"num_deleted":"0","num_feature":"446","num_nodes":"67","size_leaf_vector":"0"}},{"base_weights":[3.948597E4,3.6578977E4,6.8100256E5,2.4095734E4,1.7380922E5,1.5437069E6,4.0434775E5,2.3196215E4,2.5223302E6,5.2320816E5,8.397107E4,2.2766305E6,3.0919062E5,6.6729994E5,-1.30982984E5,1.9088043E4,4.5460728E5,3.341278E6,3.27435E4,2.3423281E5,1.1235412E6,7.851411E4,2.241141E6,2.8409835E6,3.89048E5,-3.721734E5,7.42916E5,9.791328E5,-1.3445467E5,-2.6624E4,-5.3954425E5,-3.7050316E4,5.169527E4,1.383116E6,3.4231038E5,1.6742331E5,3.251662E6,1.237633E6,-3.203261E6,8.341448E4,-1.933139E6,8.386758E5,2.2781825E5,1.1006138E6,-1.16623836E5,-4.6740684E5,3.9858725E5,-1.0540406E5,8.2853414E4,-2.2363528E5,2.186734E4,9.543021E5,4.713905E4,4.6790475E5,2.8677595E6,6.899747E5,1.8505408E3,1.160241E5,3.630257E6,2.216913E6,9.5560375E5,6.820637E4,4.0638188E5,1.188175E6,2.3756233E5,-3.2329E4,-5.479566E5,6.1444925E5,1.21816836E5,-2.077645E5,-3.66565E4,1.92407E5,2.24613E4],"categories":[],"categories_nodes":[],"categories_segments":[],"categories_sizes":[],"default_left":[true,true,true,true,true,true,true,true,true,true,true,true,true,true,true,true,true,false,false,true,true,true,false,false,false,false,true,true,true,true,false,true,true,true,true,true,false,true,false,true,false,false,false,true,false,true,true,true,true,false,false,false,false,false,false,false,false,false,false,false,false,false,false,false,false,false,false,false,false,false,false,false,false],"id":15,"left_children":[1,3,5,7,9,11,13,15,17,19,21,23,25,27,29,31,33,-1,-1,35,37,39,-1,-1,-1,-1,41,43,45,47,-1,49,51,53,55,57,-1,59,-1,61,-1,-1,-1,63,-1,65,67,69,71,-1,-1,-1,-1,-1,-1,-1,-1,-1,-1,-1,-1,-1,-1,-1,-1,-1,-1,-1,-1,-1,-1,-1,-1],"loss_changes":[2.2736018E13,2.0811423E13,1.2502725E13,2.4973133E13,3.175348E13,1.105857E13,6.1403593E12,1.9727775E13,8.0459585E12,3.5647486E13,9.323714E12,7.4168213E12,2.0496429E12,7.382041E12,6.2519076E11,2.0196171E13,1.0474752E13,0E0,0E0,2.7880201E13,3.703921E13,8.106663E12,0E0,0E0,0E0,0E0,6.23693E9,2.9237424E12,1.7835995E12,1.2085337E11,0E0,4.457111E13,2.8655971E13,1.3604548E13,1.1243467E13,2.4318984E13,0E0,1.6109768E13,0E0,3.9262182E12,0E0,0E0,0E0,1.1535594E12,0E0,1.9255761E11,1.6412659E11,4.868033E10,3.5375325E10,0E0,0E0,0E0,0E0,0E0,0E0,0E0,0E0,0E0,0E0,0E0,0E0,0E0,0E0,0E0,0E0,0E0,0E0,0E0,0E0,0E0,0E0,0E0,0E0],"parents":[2147483647,0,0,1,1,2,2,3,3,4,4,5,5,6,6,7,7,8,8,9,9,10,10,11,11,12,12,13,13,14,14,15,15,16,16,19,19,20,20,21,21,26,26,27,27,28,28,29,29,31,31,32,32,33,33,34,34,35,35,37,37,39,39,43,43,45,45,46,46,47,47,48,48],"right_children":[2,4,6,8,10,12,14,16,18,20,22,24,26,28,30,32,34,-1,-1,36,38,40,-1,-1,-1,-1,42,44,46,48,-1,50,52,54,56,58,-1,60,-1,62,-1,-1,-1,64,-1,66,68,70,72,-1,-1,-1,-1,-1,-1,-1,-1,-1,-1,-1,-1,-1,-1,-1,-1,-1,-1,-1,-1,-1,-1,-1,-1],"split_conditions":[7.4666667E0,1.4354284E0,-1.1995715E0,2.4687044E1,-2.0647416E-1,-3.3767283E-1,-2.735368E-1,5.269367E0,7.0653015E-1,-2.6515397E-1,5.7907457E0,4.7821423E-1,-3.037936E-1,4.7821423E-1,1.187814E0,-2.5540337E-1,-6.990057E-1,1.00238344E6,9.823051E3,4.621856E0,6.6924357E0,6.9613905E0,6.723423E5,8.5229506E5,1.1671441E5,-1.1165202E5,-6.990057E-1,2.2138548E0,-2.9187423E-1,9.407118E-1,-1.6186328E5,-4.4675463E-1,-3.1598526E-1,-1.0671616E0,-2.9613116E-1,2.4687044E1,9.754986E5,-5.236322E-1,-9.609783E5,4.587566E0,-5.7994175E5,2.5160275E5,6.834548E4,-2.8467026E-1,-3.4987152E4,-5.9728795E-1,-1.2193499E0,-5.6107104E-2,-6.990057E-1,-6.7090586E4,6.560202E3,2.8629066E5,1.4141716E4,1.4037144E5,8.603279E5,2.0699242E5,5.5516223E2,3.480723E4,1.0890771E6,6.6507394E5,2.8668112E5,2.046191E4,1.2191457E5,3.564525E5,7.12687E4,-9.6987E3,-1.64387E5,1.8433478E5,3.654505E4,-6.232935E4,-1.099695E4,5.77221E4,6.7383906E3],"split_indices":[175,2,10,37,8,4,8,405,1,8,215,5,8,5,28,427,1,0,0,403,239,221,0,0,0,0,1,6,8,26,0,18,8,3,8,126,0,3,0,297,0,0,0,8,0,23,3,8,1,0,0,0,0,0,0,0,0,0,0,0,0,0,0,0,0,0,0,0,0,0,0,0,0],"split_type":[0,0,0,0,0,0,0,0,0,0,0,0,0,0,0,0,0,0,0,0,0,0,0,0,0,0,0,0,0,0,0,0,0,0,0,0,0,0,0,0,0,0,0,0,0,0,0,0,0,0,0,0,0,0,0,0,0,0,0,0,0,0,0,0,0,0,0,0,0,0,0,0,0],"sum_hessian":[1.2204E4,1.215E4,5.4E1,1.1138E4,1.012E3,1.2E1,4.2E1,1.1135E4,3E0,2.06E2,8.06E2,7E0,5E0,2.8E1,1.4E1,1.1031E4,1.04E2,2E0,1E0,1.4E2,6.6E1,8.05E2,1E0,5E0,2E0,2E0,3E0,2E1,8E0,1.2E1,2E0,4.053E3,6.978E3,1E1,9.4E1,1.38E2,2E0,6.5E1,1E0,8.04E2,1E0,2E0,1E0,1.8E1,2E0,5E0,3E0,7E0,5E0,9.72E2,3.081E3,3.4E1,6.944E3,7E0,3E0,4.6E1,4.8E1,1.37E2,1E0,1.3E1,5.2E1,7.69E2,3.5E1,1.6E1,2E0,1E0,4E0,1E0,2E0,2E0,5E0,1E0,4E0],"tree_param":{"num_deleted":"0","num_feature":"446","num_nodes":"73","size_leaf_vector":"0"}},{"base_weights":[2.815077E4,2.5296834E4,6.152459E5,2.5891197E4,-2.3893208E6,4.477801E5,2.33432E6,2.4757371E4,1.2743556E6,-6.227525E4,-3.521706E6,1.4078605E6,2.5440767E5,2.5707746E4,-1.4191055E6,3.48938E5,1.57777E6,4.5651284E5,2.482917E6,4.2790038E5,-2.8727103E5,2.2515568E4,4.5242894E5,-1.921515E5,-2.5980215E6,2.0922382E6,5.40242E5,7.399225E4,8.143693E5,5.613805E5,-1.09452625E5,-5.541344E5,6.980303E5,1.8634324E4,3.620731E5,2.2291939E5,1.0088017E6,-2.2416625E5,-3.204625E4,2.49927E5,2.4903345E6,1.29815E5,6.337793E5,2.0117783E5,-1.5378225E5,3.3402097E5,9.0305775E5,3.281246E5,-6.29061E5,-1.109867E5,-8.310683E5],"categories":[],"categories_nodes":[],"categories_segments":[],"categories_sizes":[],"default_left":[true,true,true,true,true,true,false,true,true,false,false,true,true,true,true,false,true,true,false,true,true,true,true,true,false,true,true,true,false,true,true,true,false,false,false,false,false,false,false,false,false,false,false,false,false,false,false,false,false,false,false],"id":16,"left_children":[1,3,5,7,9,11,-1,13,15,-1,-1,17,19,21,23,-1,25,27,-1,29,31,33,35,37,-1,39,41,43,-1,45,47,49,-1,-1,-1,-1,-1,-1,-1,-1,-1,-1,-1,-1,-1,-1,-1,-1,-1,-1,-1],"loss_changes":[2.0434305E13,1.7494787E13,1.5940012E13,1.7160226E13,7.686022E12,9.852747E12,0E0,1.6688261E13,2.5380908E12,0E0,0E0,8.07129E12,4.539856E12,1.6510202E13,1.1072591E13,0E0,3.1398874E12,7.6106773E11,0E0,2.643578E12,3.542092E12,1.5859522E13,1.1267478E13,1.844496E10,0E0,3.044683E12,7.1286915E10,1.468161E11,0E0,1.9511839E12,2.0253607E12,1.1349889E12,0E0,0E0,0E0,0E0,0E0,0E0,0E0,0E0,0E0,0E0,0E0,0E0,0E0,0E0,0E0,0E0,0E0,0E0,0E0],"parents":[2147483647,0,0,1,1,2,2,3,3,4,4,5,5,7,7,8,8,11,11,12,12,13,13,14,14,16,16,17,17,19,19,20,20,21,21,22,22,23,23,25,25,26,26,27,27,29,29,30,30,31,31],"right_children":[2,4,6,8,10,12,-1,14,16,-1,-1,18,20,22,24,-1,26,28,-1,30,32,34,36,38,-1,40,42,44,-1,46,48,50,-1,-1,-1,-1,-1,-1,-1,-1,-1,-1,-1,-1,-1,-1,-1,-1,-1,-1,-1],"split_conditions":[7.2010164E0,3.904805E1,1.5655595E-1,1.7445635E1,1.1058867E0,-9.224742E-1,7.00296E5,2.0859226E1,-2.9731804E-1,-1.8682576E4,-1.0565119E6,-6.975616E-1,8.8335216E-1,5.7907457E0,4.2469862E-1,1.0468141E5,6.030072E-1,-6.990057E-1,7.448751E5,-2.7673015E-1,2.380182E-1,4.6746974E0,5.843016E-1,4.7821423E-1,-7.794065E5,-5.860311E-1,-7.715558E-1,2.6673017E0,2.443108E5,-6.727146E-1,-3.3106753E-1,-6.820322E-1,2.0940911E5,5.5902974E3,1.0862193E5,6.687582E4,3.0264053E5,-6.7249875E4,-9.613875E3,7.49781E4,7.471004E5,3.89445E4,1.901338E5,6.035335E4,-4.6134676E4,1.002063E5,2.7091734E5,9.843738E4,-1.8871831E5,-3.329601E4,-2.493205E5],"split_indices":[327,222,3,421,0,5,0,219,19,0,0,3,4,215,2,0,24,1,0,8,1,150,9,5,0,2,5,7,0,3,3,3,0,0,0,0,0,0,0,0,0,0,0,0,0,0,0,0,0,0,0],"split_type":[0,0,0,0,0,0,0,0,0,0,0,0,0,0,0,0,0,0,0,0,0,0,0,0,0,0,0,0,0,0,0,0,0,0,0,0,0,0,0,0,0,0,0,0,0,0,0,0,0,0,0],"sum_hessian":[1.2204E4,1.2146E4,5.8E1,1.2144E4,2E0,5.4E1,4E0,1.2134E4,1E1,1E0,1E0,8E0,4.6E1,1.2127E4,7E0,3E0,7E0,5E0,3E0,3.5E1,1.1E1,1.2038E4,8.9E1,4E0,3E0,4E0,3E0,3E0,2E0,2.8E1,7E0,9E0,2E0,1.1903E4,1.35E2,6.4E1,2.5E1,3E0,1E0,1E0,3E0,1E0,2E0,2E0,1E0,1.8E1,1E1,4E0,3E0,4E0,5E0],"tree_param":{"num_deleted":"0","num_feature":"446","num_nodes":"51","size_leaf_vector":"0"}},{"base_weights":[1.9838234E4,2.276896E4,-4.2463472E5,2.4399842E4,-7.676187E5,-1.5717839E5,-5.8196494E5,2.6031357E4,-7.647933E5,-3.0832938E5,-1.7050672E6,-2.4139873E5,2.339728E5,-3.5656978E5,-7.086081E5,1.52123955E4,1.5465338E5,-2.2571012E5,-1.1722366E6,-1.4470829E6,-7.554253E4,-2.0965969E4,-3.2150734E5,5.4802875E4,2.588462E5,-3.7194884E5,-3.218375E4,-6.5360777E4,3.3083484E4,-8.0060483E3,3.583879E5,-7.3296275E5,2.4814389E4,-1.5551926E6,1.7395188E5,8.412833E3,-2.619269E5,-8.671721E4,2.1964638E5,-2.3439406E5,-4.119888E5,-8.591896E4,5.9727975E5,1.9466828E5,1.4930718E4,-2.6818166E4,1.9425305E6,2.612678E5,1.599291E6,1.467472E5,-1.020813E5,1.007045E5,-7.189614E4,-7.226575E4,-2.9127575E5,-1.19817E5,-3.1938125E4,-2.6616653E5,-5.03545E4],"categories":[],"categories_nodes":[],"categories_segments":[],"categories_sizes":[],"default_left":[true,true,true,true,true,true,true,true,true,true,false,true,true,true,false,true,true,true,true,false,true,true,true,false,false,false,false,true,true,true,true,false,true,false,false,true,true,true,false,true,false,false,false,false,false,false,false,false,false,false,false,false,false,false,false,false,false,false,false],"id":17,"left_children":[1,3,5,7,9,11,13,15,17,19,-1,21,23,25,-1,27,29,31,33,-1,35,37,39,-1,-1,-1,-1,41,43,45,47,-1,49,-1,-1,51,53,55,-1,57,-1,-1,-1,-1,-1,-1,-1,-1,-1,-1,-1,-1,-1,-1,-1,-1,-1,-1,-1],"loss_changes":[1.5908256E13,1.5649485E13,3.2748455E12,1.5602202E13,1.023828E13,1.0777101E12,1.1745687E12,1.6804867E13,5.22656E12,4.662247E12,0E0,4.5238177E11,1.2553847E10,8.780435E10,0E0,1.6045864E13,3.1054432E13,1.5431387E12,7.487963E12,0E0,2.5257103E11,1.456116E11,5.319295E10,0E0,0E0,0E0,0E0,2.7610006E13,2.6747974E13,1.920622E13,4.9717073E13,0E0,1.5423488E11,0E0,0E0,9.618246E10,6.782419E9,8.865505E9,0E0,5.6765972E10,0E0,0E0,0E0,0E0,0E0,0E0,0E0,0E0,0E0,0E0,0E0,0E0,0E0,0E0,0E0,0E0,0E0,0E0,0E0],"parents":[2147483647,0,0,1,1,2,2,3,3,4,4,5,5,6,6,7,7,8,8,9,9,11,11,12,12,13,13,15,15,16,16,17,17,18,18,20,20,21,21,22,22,27,27,28,28,29,29,30,30,32,32,35,35,36,36,37,37,39,39],"right_children":[2,4,6,8,10,12,14,16,18,20,-1,22,24,26,-1,28,30,32,34,-1,36,38,40,-1,-1,-1,-1,42,44,46,48,-1,50,-1,-1,52,54,56,-1,58,-1,-1,-1,-1,-1,-1,-1,-1,-1,-1,-1,-1,-1,-1,-1,-1,-1,-1,-1],"split_conditions":[6.1540136E0,1.1241686E1,1.3272548E0,1.1241686E1,1.8965381E-1,-2.3895764E-1,-9.833027E-1,1.9972782E0,-2.9448342E-1,-1.2895298E0,-5.115202E5,-6.990057E-1,-1.4667076E-1,-2.4118432E-1,-2.1258245E5,-2.8204277E-1,5.843016E-1,-3.039508E-1,-2.0961773E-1,-4.3412488E5,-1.2792155E-2,1.1058867E0,-5.860311E-1,1.6440863E4,7.765387E4,-1.1158466E5,-9.655125E3,4.6746974E0,-2.2062019E-1,2.2138548E0,-6.396168E-2,-2.1988883E5,9.9224305E-1,-4.665578E5,5.2185566E4,-5.860311E-1,6.5723133E-1,-3.093996E-1,6.5893914E4,-1.1995715E0,-1.2359665E5,-2.577569E4,1.7918394E5,5.840049E4,4.4792153E3,-8.04545E3,5.827592E5,7.838034E4,4.797873E5,4.4024164E4,-3.062439E4,3.0211352E4,-2.1568844E4,-2.1679727E4,-8.738273E4,-3.59451E4,-9.5814375E3,-7.984996E4,-1.5106351E4],"split_indices":[313,209,7,275,104,8,3,7,8,12,0,1,5,8,0,8,9,8,8,0,7,0,2,0,0,0,0,150,8,6,3,0,7,0,0,2,7,8,0,10,0,0,0,0,0,0,0,0,0,0,0,0,0,0,0,0,0,0,0],"split_type":[0,0,0,0,0,0,0,0,0,0,0,0,0,0,0,0,0,0,0,0,0,0,0,0,0,0,0,0,0,0,0,0,0,0,0,0,0,0,0,0,0,0,0,0,0,0,0,0,0,0,0,0,0,0,0,0,0,0,0],"sum_hessian":[1.2204E4,1.2125E4,7.9E1,1.2101E4,2.4E1,3E1,4.9E1,1.2077E4,2.4E1,1.7E1,7E0,2.5E1,5E0,1.9E1,3E1,1.1141E4,9.36E2,1.1E1,1.3E1,2E0,1.5E1,7E0,1.8E1,1E0,4E0,1.8E1,1E0,2.022E3,9.119E3,5.21E2,4.15E2,3E0,8E0,1E1,3E0,1.1E1,4E0,6E0,1E0,1.1E1,7E0,1.962E3,6E1,9.2E2,8.199E3,5.17E2,4E0,3.86E2,2.9E1,4E0,4E0,5E0,6E0,1E0,3E0,3E0,3E0,9E0,2E0],"tree_param":{"num_deleted":"0","num_feature":"446","num_nodes":"59","size_leaf_vector":"0"}},{"base_weights":[1.3824958E4,1.1312035E4,4.9796138E5,4.82048E3,1.9753964E5,1.3946834E6,-2.1332134E5,-7.09505E4,2.7254182E4,1.01091156E6,1.5312228E5,4.7217212E5,1.8809579E6,3.9125447E5,-4.9498488E5,-8.424127E4,8.810779E5,2.39823E4,1.311065E6,3.526363E5,2.2770855E6,8.94447E4,7.389482E5,-4.911555E5,1.3568044E6,3.111025E4,1.9879424E6,1.45874E5,4.9571044E5,-1.4065366E5,-1.0124164E6,-1.0332969E5,5.2126512E5,2.7593982E6,1.7878211E5,2.5829564E4,-2.0631915E6,2.0869409E6,-1.2773522E5,-3.6379582E4,1.4315249E6,2.6323248E6,7.28245E4,5.8314156E5,3.8577268E3,5.882626E5,3.1571575E6,-9.82428E5,3.27593E5,1.4504652E6,2.5485578E6,5.2767444E5,1.3598125E5,-5.6798256E5,1.0522155E5,2.9718334E5,-1.3769642E6,-1.0953276E5,1.4925089E6,1.506606E6,-1.5296983E5,3.1085762E6,-1.9160175E5,7.0007994E5,-1.4972114E5,2.7739494E4,-1.3004722E6,-9.6930625E4,-3.223562E6,-4.644265E5,2.3023548E6,-5.456903E5,6.963629E4,-3.2579038E5,6.238896E5,7.8616025E5,2.8443258E6,3.7619344E5,2.9724705E6,-3.5829082E4,1.1623268E6,2.9643788E5,1.1042131E6,-4.862495E5,9.77639E5,1.710665E6,-5.75766E5,1.3867333E5,-9.559789E5,-2.9000934E5,2.2527389E5,3.9265E4,4.0651E5,2.3348967E5,-1.9526971E6],"categories":[],"categories_nodes":[],"categories_segments":[],"categories_sizes":[],"default_left":[true,true,true,true,true,true,true,true,true,true,true,true,true,true,true,true,true,true,true,true,true,true,true,true,false,false,true,false,true,true,true,true,true,true,true,true,true,true,true,true,false,true,false,true,true,true,false,false,true,true,false,false,false,true,true,true,true,false,false,false,false,false,false,false,false,false,false,false,false,false,false,false,false,false,false,false,false,false,false,false,false,false,false,false,false,false,false,false,false,false,false,false,false,false,false],"id":18,"left_children":[1,3,5,7,9,11,13,15,17,19,21,23,25,27,29,31,33,35,37,39,41,43,45,47,-1,-1,49,-1,51,53,55,57,59,61,63,65,67,69,71,73,-1,75,-1,77,79,81,-1,-1,83,85,-1,-1,-1,87,89,91,93,-1,-1,-1,-1,-1,-1,-1,-1,-1,-1,-1,-1,-1,-1,-1,-1,-1,-1,-1,-1,-1,-1,-1,-1,-1,-1,-1,-1,-1,-1,-1,-1,-1,-1,-1,-1,-1,-1],"loss_changes":[1.4842937E13,1.4678803E13,4.0480356E13,1.9949364E13,1.4621488E13,1.1672488E13,6.3239954E12,3.3997439E13,3.8003876E13,1.6700326E13,1.4445152E13,1.0040501E13,3.5004487E12,2.3526624E11,4.441153E12,3.0625183E13,4.831472E13,3.4880583E13,2.5942173E13,6.34765E12,5.289588E12,1.4871165E13,1.1989554E13,2.7352084E12,0E0,0E0,1.4258075E12,0E0,2.0233191E10,1.7408773E12,5.1833293E12,2.5554678E13,5.4042915E13,1.0899847E13,4.899762E12,2.2900206E13,1.7940263E13,9.313276E12,7.804317E11,2.4963257E12,0E0,1.1223119E11,0E0,2.4594067E13,1.3880403E13,5.243653E12,0E0,0E0,2.0624818E12,6.7844146E12,0E0,0E0,0E0,1.7776479E12,5.8726384E11,6.863043E10,7.8734657E12,0E0,0E0,0E0,0E0,0E0,0E0,0E0,0E0,0E0,0E0,0E0,0E0,0E0,0E0,0E0,0E0,0E0,0E0,0E0,0E0,0E0,0E0,0E0,0E0,0E0,0E0,0E0,0E0,0E0,0E0,0E0,0E0,0E0,0E0,0E0,0E0,0E0,0E0],"parents":[2147483647,0,0,1,1,2,2,3,3,4,4,5,5,6,6,7,7,8,8,9,9,10,10,11,11,12,12,13,13,14,14,15,15,16,16,17,17,18,18,19,19,20,20,21,21,22,22,23,23,26,26,28,28,29,29,30,30,31,31,32,32,33,33,34,34,35,35,36,36,37,37,38,38,39,39,41,41,43,43,44,44,45,45,48,48,49,49,53,53,54,54,55,55,56,56],"right_children":[2,4,6,8,10,12,14,16,18,20,22,24,26,28,30,32,34,36,38,40,42,44,46,48,-1,-1,50,-1,52,54,56,58,60,62,64,66,68,70,72,74,-1,76,-1,78,80,82,-1,-1,84,86,-1,-1,-1,88,90,92,94,-1,-1,-1,-1,-1,-1,-1,-1,-1,-1,-1,-1,-1,-1,-1,-1,-1,-1,-1,-1,-1,-1,-1,-1,-1,-1,-1,-1,-1,-1,-1,-1,-1,-1,-1,-1,-1,-1],"split_conditions":[6.9613905E0,2.5954938E0,-2.902308E-1,-2.8016376E-1,-1.8577049E0,-1.1995715E0,-5.82644E-1,6.54501E0,8.582859E0,1.22391246E-1,6.593088E0,1.3272548E0,-9.5534986E-1,3.334059E-1,6.5723133E-1,5.5122294E0,-3.3767283E-1,8.188463E0,-2.054263E-1,-5.864876E-1,5.843016E-1,-9.224742E-1,2.2799125E-1,8.8335216E-1,4.0704134E5,9.333075E3,4.5998687E-1,4.3762203E4,2.380182E-1,-5.9728795E-1,4.7821423E-1,2.6816382E0,-3.0016303E-1,-2.85183E-1,-2.9931402E-1,8.378805E0,-1.2792155E-2,-9.224742E-1,-1.0588017E-1,-1.8509108E-1,4.2945747E5,2.380182E-1,2.1847352E4,8.802265E-1,1.5770658E0,-6.416558E-1,9.471473E5,-2.947284E5,-7.627852E-1,-2.9796973E-2,7.645674E5,1.5830234E5,4.0794375E4,-5.484793E-1,-1.4667076E-1,2.3801821E-1,-2.7458465E-1,-3.285983E4,4.477527E5,4.519818E5,-4.589095E4,9.3257294E5,-5.7480527E4,2.1002398E5,-4.4916344E4,8.321849E3,-3.901417E5,-2.907919E4,-9.670686E5,-1.3932795E5,6.9070644E5,-1.637071E5,2.0890887E4,-9.773712E4,1.8716689E5,2.3584808E5,8.5329775E5,1.1285804E5,8.917412E5,-1.0748725E4,3.4869803E5,8.893137E4,3.3126394E5,-1.4587486E5,2.9329172E5,5.1319953E5,-1.7272981E5,4.1602E4,-2.867937E5,-8.7002805E4,6.758217E4,1.17795E4,1.2195301E5,7.004691E4,-5.858092E5],"split_indices":[221,105,8,8,15,10,3,374,385,3,286,7,3,11,7,170,4,290,8,16,9,5,3,4,0,0,25,0,1,23,5,3,8,8,8,207,7,5,8,3,0,1,0,3,5,3,0,0,3,3,0,0,0,3,5,1,8,0,0,0,0,0,0,0,0,0,0,0,0,0,0,0,0,0,0,0,0,0,0,0,0,0,0,0,0,0,0,0,0,0,0,0,0,0,0],"split_type":[0,0,0,0,0,0,0,0,0,0,0,0,0,0,0,0,0,0,0,0,0,0,0,0,0,0,0,0,0,0,0,0,0,0,0,0,0,0,0,0,0,0,0,0,0,0,0,0,0,0,0,0,0,0,0,0,0,0,0,0,0,0,0,0,0,0,0,0,0,0,0,0,0,0,0,0,0,0,0,0,0,0,0,0,0,0,0,0,0,0,0,0,0,0,0],"sum_hessian":[1.2204E4,1.2142E4,6.2E1,1.1734E4,4.08E2,2.7E1,3.5E1,2.68E3,9.054E3,2E1,3.88E2,1E1,1.7E1,1.1E1,2.4E1,2.644E3,3.6E1,9.032E3,2.2E1,1.4E1,6E0,3.51E2,3.7E1,5E0,5E0,1E0,1.6E1,4E0,7E0,1.5E1,9E0,2.564E3,8E1,9E0,2.7E1,9.025E3,7E0,1.4E1,8E0,1.1E1,3E0,5E0,1E0,5.1E1,3E2,3.6E1,1E0,3E0,2E0,1E1,6E0,6E0,1E0,5E0,1E1,2E0,7E0,2.555E3,9E0,3.2E1,4.8E1,8E0,1E0,1E1,1.7E1,9.013E3,1.2E1,3E0,4E0,1E0,1.3E1,2E0,6E0,8E0,3E0,1E0,4E0,4.8E1,3E0,2.91E2,9E0,2.4E1,1.2E1,1E0,1E0,9E0,1E0,2E0,3E0,2E0,8E0,1E0,1E0,2E0,5E0],"tree_param":{"num_deleted":"0","num_feature":"446","num_nodes":"95","size_leaf_vector":"0"}},{"base_weights":[1.0185539E4,1.2123541E4,-5.6508225E5,1.4506838E4,-4.317595E5,-1.2143212E5,-1.5112954E6,1.3978204E4,3.2054885E6,-9.373825E5,-1.8620742E5,-6.9416275E5,2.6810209E4,-8.4963625E4,-1.9306986E6,1.2090912E4,5.687772E5,-6.5972325E5,-1.6939475E6,-3.7001766E5,-1.0815467E5,-9.750874E5,-8.8209E4,2.3282373E5,-6.300343E5,3.624975E4,-1.3745133E5,-2.1547525E6,4.289275E4,1.2598877E4,-2.0336181E6,1.8838995E6,1.9287178E5,-7.7240875E4,-6.913009E5,-3.0723395E6,-5.812647E5,-1.4756986E5,3.3464E4,4.9648912E5,-4.0682954E3,-1.1629121E6,-7.2867375E4,1.1766905E4,1.2642854E6,-2.361625E4,-3.026811E6,3.2038185E6,6.899703E5,3.7317184E5,-5.3012444E5,-3.760464E4,-1.9435414E5,6.354157E4,-8.85395E4,2.3820861E5,9.336473E5,1.615099E5,-1.2175725E5,5.371925E4,-1.3296933E5],"categories":[],"categories_nodes":[],"categories_segments":[],"categories_sizes":[],"default_left":[true,true,true,true,true,true,true,true,false,true,true,true,true,true,true,true,true,true,true,false,true,false,false,true,true,false,false,false,false,true,true,true,true,false,false,false,false,true,true,true,true,false,true,false,false,false,false,false,false,false,false,false,false,false,false,false,false,false,false,false,false],"id":19,"left_children":[1,3,5,7,9,11,13,15,-1,17,19,21,23,25,27,29,31,33,35,-1,37,-1,-1,39,41,-1,-1,-1,-1,43,45,47,49,-1,-1,-1,-1,51,53,55,57,-1,59,-1,-1,-1,-1,-1,-1,-1,-1,-1,-1,-1,-1,-1,-1,-1,-1,-1,-1],"loss_changes":[1.361384E13,1.2875678E13,1.7027771E13,2.03679E13,7.895643E12,2.4807953E12,7.612664E12,1.2662639E13,0E0,3.293875E12,6.0559104E11,9.353526E11,3.3943396E12,3.0431427E10,4.5143294E12,1.2557742E13,1.9905475E13,2.5929135E11,5.882722E12,0E0,1.8914181E11,0E0,0E0,1.1887643E12,1.6966733E12,0E0,0E0,0E0,0E0,1.2541936E13,5.917476E12,1.1972469E13,4.499585E12,0E0,0E0,0E0,0E0,1.26452105E11,3.4982494E10,7.9378226E11,2.3401898E11,0E0,3.7575426E10,0E0,0E0,0E0,0E0,0E0,0E0,0E0,0E0,0E0,0E0,0E0,0E0,0E0,0E0,0E0,0E0,0E0,0E0],"parents":[2147483647,0,0,1,1,2,2,3,3,4,4,5,5,6,6,7,7,9,9,10,10,11,11,12,12,13,13,14,14,15,15,16,16,17,17,18,18,20,20,23,23,24,24,29,29,30,30,31,31,32,32,37,37,38,38,39,39,40,40,42,42],"right_children":[2,4,6,8,10,12,14,16,-1,18,20,22,24,26,28,30,32,34,36,-1,38,-1,-1,40,42,-1,-1,-1,-1,44,46,48,50,-1,-1,-1,-1,52,54,56,58,-1,60,-1,-1,-1,-1,-1,-1,-1,-1,-1,-1,-1,-1,-1,-1,-1,-1,-1,-1],"split_conditions":[8.690559E0,6.850051E0,1.8965381E-1,3.1878677E1,-1.9887722E-1,-1.1853645E0,4.5998687E-1,8.690559E0,9.6164656E5,4.7821423E-1,-1.7399068E-1,-3.0000874E-1,8.8335216E-1,-8.5285574E-1,